{"learner":{"attributes":{"best_iteration":"74","best_ntree_limit":"75","scikit_learn":"{\"use_label_encoder\": true, \"n_estimators\": 75, \"objective\": \"binary:logistic\", \"max_depth\": 3, \"learning_rate\": null, \"verbosity\": null, \"booster\": null, \"tree_method\": null, \"gamma\": 0.25, \"min_child_weight\": 5, \"max_delta_step\": null, \"subsample\": null, \"colsample_bytree\": null, \"colsample_bylevel\": null, \"colsample_bynode\": null, \"reg_alpha\": null, \"reg_lambda\": null, \"scale_pos_weight\": 20.11953687284865, \"base_score\": null, \"missing\": NaN, \"num_parallel_tree\": null, \"random_state\": null, \"n_jobs\": null, \"monotone_constraints\": null, \"interaction_constraints\": null, \"importance_type\": null, \"gpu_id\": null, \"validate_parameters\": null, \"predictor\": null, \"enable_categorical\": false, \"kwargs\": {\"eval_metric\": \"auc\"}, \"classes_\": [0, 1], \"n_classes_\": 2, \"_le\": {\"classes_\": [0, 1]}, \"_estimator_type\": \"classifier\"}"},"feature_names":["UA_II","Age","hyperlipidemia","NSAIDS","Diuretics","HA1C_BOOL","SEDIMENTATION_BOOL","HYPERTENSION","Enalapril","UREA_max"],"feature_types":["float","float","float","float","float","float","float","float","float","float"],"gradient_booster":{"model":{"gbtree_model_param":{"num_trees":"75","size_leaf_vector":"0"},"tree_info":[0,0,0,0,0,0,0,0,0,0,0,0,0,0,0,0,0,0,0,0,0,0,0,0,0,0,0,0,0,0,0,0,0,0,0,0,0,0,0,0,0,0,0,0,0,0,0,0,0,0,0,0,0,0,0,0,0,0,0,0,0,0,0,0,0,0,0,0,0,0,0,0,0,0,0],"trees":[{"base_weights":[5.0969083E-2,-4.3267468E-1,8.19701E-1,-6.79583E-1,-1.7625481E-1,5.1988053E-1,1.1263028E0,-1.077269E0,-5.396074E-1,-5.398002E-1,-6.2423058E-2,6.814257E-1,2.6626074E-1,1.2936294E0,7.5965315E-1],"categories":[],"categories_nodes":[],"categories_segments":[],"categories_sizes":[],"default_left":[true,true,true,true,true,true,true,false,false,false,false,false,false,false,false],"id":0,"left_children":[1,3,5,7,9,11,13,-1,-1,-1,-1,-1,-1,-1,-1],"loss_changes":[3.4966406E4,3.6548076E3,3.3381113E3,1.6365342E3,1.1719421E3,7.522412E2,1.1006152E3,0E0,0E0,0E0,0E0,0E0,0E0,0E0,0E0],"parents":[2147483647,0,0,1,1,2,2,3,3,4,4,5,5,6,6],"right_children":[2,4,6,8,10,12,14,-1,-1,-1,-1,-1,-1,-1,-1],"split_conditions":[3.924719E-1,-3.9436954E-1,1.2825058E0,-5.428188E-1,-7.557776E-1,5E-1,1.4603151E-1,-3.231807E-1,-1.6188222E-1,-1.6194007E-1,-1.8726919E-2,2.0442772E-1,7.9878226E-2,3.8808885E-1,2.2789596E-1],"split_indices":[0,0,0,1,1,5,9,0,0,0,0,0,0,0,0],"split_type":[0,0,0,0,0,0,0,0,0,0,0,0,0,0,0],"sum_hessian":[9.404625E4,5.772764E4,3.631861E4,2.9408428E4,2.8319213E4,1.8363734E4,1.7954877E4,7.6544893E3,2.1753938E4,6.7518936E3,2.156732E4,1.1217177E4,7.146557E3,1.2326807E4,5.628071E3],"tree_param":{"num_deleted":"0","num_feature":"10","num_nodes":"15","size_leaf_vector":"0"}},{"base_weights":[3.652555E-2,-3.394393E-1,5.462794E-1,-6.5908563E-1,-2.4453594E-1,3.5024858E-1,8.4503514E-1,-8.826243E-1,-4.1596997E-1,-4.481794E-1,-9.248073E-2,4.2012388E-1,-2.1651928E-1,9.211861E-1,1.7062098E-1],"categories":[],"categories_nodes":[],"categories_segments":[],"categories_sizes":[],"default_left":[true,true,true,true,true,true,true,false,false,false,false,false,false,false,false],"id":1,"left_children":[1,3,5,7,9,11,13,-1,-1,-1,-1,-1,-1,-1,-1],"loss_changes":[1.7825508E4,1.6237065E3,2.3119062E3,6.6559424E2,1.2781062E3,9.442468E2,8.0313574E2,0E0,0E0,0E0,0E0,0E0,0E0,0E0,0E0],"parents":[2147483647,0,0,1,1,2,2,3,3,4,4,5,5,6,6],"right_children":[2,4,6,8,10,12,14,-1,-1,-1,-1,-1,-1,-1,-1],"split_conditions":[2.6348153E-1,5E-1,1.4243951E0,-7.557776E-1,-5.040115E-1,7.495606E-1,1.2673314E0,-2.6478732E-1,-1.24791E-1,-1.3445382E-1,-2.7744219E-2,1.2603717E-1,-6.4955786E-2,2.7635583E-1,5.1186297E-2],"split_indices":[0,2,0,1,0,9,1,0,0,0,0,0,0,0,0],"split_type":[0,0,0,0,0,0,0,0,0,0,0,0,0,0,0],"sum_hessian":[9.300899E4,5.3529254E4,3.947974E4,1.2253156E4,4.1276098E4,2.3839467E4,1.5640271E4,6.3822285E3,5.8709277E3,1.7644008E4,2.3632092E4,2.1223178E4,2.6162903E3,1.4053109E4,1.5871617E3],"tree_param":{"num_deleted":"0","num_feature":"10","num_nodes":"15","size_leaf_vector":"0"}},{"base_weights":[2.6852923E-2,-2.1030664E-1,4.777452E-1,-3.284248E-1,2.204642E-2,6.229022E-1,2.5105253E-1,-6.0982853E-1,-2.4820803E-1,1.9587004E-1,-2.205015E-1,4.9772415E-1,9.186446E-1,3.086502E-1,-4.1177738E-1],"categories":[],"categories_nodes":[],"categories_segments":[],"categories_sizes":[],"default_left":[true,true,true,true,true,true,true,false,false,false,false,false,false,false,false],"id":2,"left_children":[1,3,5,7,9,11,13,-1,-1,-1,-1,-1,-1,-1,-1],"loss_changes":[9.747629E3,1.6394746E3,1.0337485E3,8.9383203E2,8.4888873E2,7.086328E2,4.6844592E2,0E0,0E0,0E0,0E0,0E0,0E0,0E0,0E0],"parents":[2147483647,0,0,1,1,2,2,3,3,4,4,5,5,6,6],"right_children":[2,4,6,8,10,12,14,-1,-1,-1,-1,-1,-1,-1,-1],"split_conditions":[5.214623E-1,-1.3638872E-1,5E-1,5E-1,5E-1,1.8629625E0,1.4802902E0,-1.8294856E-1,-7.4462414E-2,5.8761016E-2,-6.615045E-2,1.4931725E-1,2.755934E-1,9.259506E-2,-1.2353322E-1],"split_indices":[0,0,5,2,5,0,1,0,0,0,0,0,0,0,0],"split_type":[0,0,0,0,0,0,0,0,0,0,0,0,0,0,0],"sum_hessian":[9.115412E4,5.9735223E4,3.1418898E4,3.9602582E4,2.013264E4,1.9153002E4,1.2265896E4,8.783412E3,3.081917E4,1.1727931E4,8.404709E3,1.3458949E4,5.6940522E3,1.1285738E4,9.80158E2],"tree_param":{"num_deleted":"0","num_feature":"10","num_nodes":"15","size_leaf_vector":"0"}},{"base_weights":[1.997171E-2,-1.3974246E-1,3.851782E-1,-4.8310813E-1,-8.7915406E-2,4.553352E-1,2.198353E-2,-6.041139E-1,-2.8710952E-1,6.5729216E-2,-2.3705079E-1,3.5764098E-1,7.043181E-1,-1.3146207E-1,2.4775457E-1],"categories":[],"categories_nodes":[],"categories_segments":[],"categories_sizes":[],"default_left":[true,true,true,true,true,true,true,false,false,false,false,false,false,false,false],"id":3,"left_children":[1,3,5,7,9,11,13,-1,-1,-1,-1,-1,-1,-1,-1],"loss_changes":[5.2067734E3,1.1051696E3,6.9205493E2,1.9299084E2,1.236498E3,5.534458E2,1.5240039E2,0E0,0E0,0E0,0E0,0E0,0E0,0E0,0E0],"parents":[2147483647,0,0,1,1,2,2,3,3,4,4,5,5,6,6],"right_children":[2,4,6,8,10,12,14,-1,-1,-1,-1,-1,-1,-1,-1],"split_conditions":[6.375537E-1,-1.1284556E0,1.0011327E0,5E-1,5E-1,2.0693471E0,1.8242655E0,-1.8123417E-1,-8.613286E-2,1.9718766E-2,-7.111524E-2,1.072923E-1,2.1129544E-1,-3.943862E-2,7.432637E-2],"split_indices":[0,1,1,2,5,0,0,0,0,0,0,0,0,0,0],"split_type":[0,0,0,0,0,0,0,0,0,0,0,0,0,0,0],"sum_hessian":[8.926421E4,6.21048E4,2.7159408E4,8.143566E3,5.3961234E4,2.2762252E4,4.3971553E3,5.0337466E3,3.1098198E3,2.6579076E4,2.7382158E4,1.6349562E4,6.4126914E3,2.6181462E3,1.779009E3],"tree_param":{"num_deleted":"0","num_feature":"10","num_nodes":"15","size_leaf_vector":"0"}},{"base_weights":[1.485074E-2,-1.7732163E-1,2.050204E-1,-2.6542583E-1,4.034214E-2,2.4109057E-1,-2.363549E-1,-5.363632E-1,-2.0152499E-1,1.4002179E-1,-3.5456982E-1,1.7647429E-1,4.935615E-1,-1.3346943E-1,-5.266446E-1],"categories":[],"categories_nodes":[],"categories_segments":[],"categories_sizes":[],"default_left":[true,true,true,true,true,true,true,false,false,false,false,false,false,false,false],"id":4,"left_children":[1,3,5,7,9,11,13,-1,-1,-1,-1,-1,-1,-1,-1],"loss_changes":[3.2060466E3,8.367882E2,7.0204944E2,5.376643E2,4.9500793E2,6.649087E2,9.943637E1,0E0,0E0,0E0,0E0,0E0,0E0,0E0,0E0],"parents":[2147483647,0,0,1,1,2,2,3,3,4,4,5,5,6,6],"right_children":[2,4,6,8,10,12,14,-1,-1,-1,-1,-1,-1,-1,-1],"split_conditions":[5.5006533E-3,5E-1,1.3738108E0,-7.684417E-1,1.320571E0,1.8113663E0,1.7464886E0,-1.6090897E-1,-6.0457498E-2,4.2006537E-2,-1.0637095E-1,5.2942287E-2,1.4806846E-1,-4.0040832E-2,-1.5799338E-1],"split_indices":[0,4,1,0,1,0,1,0,0,0,0,0,0,0,0],"split_type":[0,0,0,0,0,0,0,0,0,0,0,0,0,0,0],"sum_hessian":[8.772589E4,4.3633227E4,4.4092668E4,3.106056E4,1.2572664E4,4.076196E4,3.3307043E3,5.9262153E3,2.5134346E4,1.0039293E4,2.5333704E3,3.245681E4,8.30515E3,2.4602085E3,8.704958E2],"tree_param":{"num_deleted":"0","num_feature":"10","num_nodes":"15","size_leaf_vector":"0"}},{"base_weights":[1.0744543E-2,-1.154354E-1,1.6262828E-1,-1.8073477E-1,7.4885145E-2,2.0678279E-1,-1.8126735E-1,-3.0916235E-1,-7.79848E-2,2.8567445E-1,-4.7310952E-2,-5.8780447E-2,2.688054E-1,-8.054601E-2,-6.154813E-1],"categories":[],"categories_nodes":[],"categories_segments":[],"categories_sizes":[],"default_left":[true,true,true,true,true,true,true,false,false,false,false,false,false,false,false],"id":5,"left_children":[1,3,5,7,9,11,13,-1,-1,-1,-1,-1,-1,-1,-1],"loss_changes":[1.6548599E3,5.86181E2,5.950239E2,4.6338196E2,3.1037854E2,5.719789E2,1.9496626E2,0E0,0E0,0E0,0E0,0E0,0E0,0E0,0E0],"parents":[2147483647,0,0,1,1,2,2,3,3,4,4,5,5,6,6],"right_children":[2,4,6,8,10,12,14,-1,-1,-1,-1,-1,-1,-1,-1],"split_conditions":[1.4094052E-1,5E-1,1.0269893E0,-5.040115E-1,5E-1,-1.1284556E0,3.0390775E0,-9.274871E-2,-2.3395441E-2,8.570234E-2,-1.4193286E-2,-1.7634135E-2,8.064163E-2,-2.4163803E-2,-1.846444E-1],"split_indices":[0,8,9,0,5,1,9,0,0,0,0,0,0,0,0],"split_type":[0,0,0,0,0,0,0,0,0,0,0,0,0,0,0],"sum_hessian":[8.6347484E4,4.716479E4,3.9182695E4,3.5116348E4,1.204844E4,3.472462E4,4.4580723E3,1.560704E4,1.9509309E4,4.4209414E3,7.627499E3,6.5745054E3,2.8150115E4,3.6196377E3,8.384347E2],"tree_param":{"num_deleted":"0","num_feature":"10","num_nodes":"15","size_leaf_vector":"0"}},{"base_weights":[7.6617906E-3,-5.6019E-2,2.1796761E-1,-2.3987924E-1,-3.939915E-3,3.5523617E-1,1.617069E-2,-3.7529776E-1,-9.755489E-2,3.9665736E-2,-3.6622116E-1,3.812298E-1,-3.8972118E-1,-6.5163024E-2,2.831758E-1],"categories":[],"categories_nodes":[],"categories_segments":[],"categories_sizes":[],"default_left":[true,true,true,true,true,true,true,false,false,false,false,false,false,false,false],"id":6,"left_children":[1,3,5,7,9,11,13,-1,-1,-1,-1,-1,-1,-1,-1],"loss_changes":[1.1429374E3,6.272429E2,5.494431E2,2.7864288E2,8.064508E2,2.2874463E2,1.7443028E2,0E0,0E0,0E0,0E0,0E0,0E0,0E0,0E0],"parents":[2147483647,0,0,1,1,2,2,3,3,4,4,5,5,6,6],"right_children":[2,4,6,8,10,12,14,-1,-1,-1,-1,-1,-1,-1,-1],"split_conditions":[8.4393835E-1,-7.557776E-1,5E-1,5E-1,1.320571E0,1.7852945E0,2.6240058E0,-1.1258933E-1,-2.926647E-2,1.1899722E-2,-1.0986635E-1,1.1436894E-1,-1.1691636E-1,-1.9548908E-2,8.495274E-2],"split_indices":[0,1,5,2,1,9,0,0,0,0,0,0,0,0,0],"split_type":[0,0,0,0,0,0,0,0,0,0,0,0,0,0,0],"sum_hessian":[8.534006E4,6.550563E4,1.983443E4,1.4458318E4,5.1047312E4,1.1804132E4,8.030299E3,7.4080664E3,7.0502515E3,4.556394E4,5.4833716E3,1.1406611E4,3.9751978E2,6.155882E3,1.874417E3],"tree_param":{"num_deleted":"0","num_feature":"10","num_nodes":"15","size_leaf_vector":"0"}},{"base_weights":[5.6523234E-3,9.1616414E-2,-9.932411E-2,-9.693434E-2,1.7441823E-1,-1.0185207E0,-8.9660525E-2,-2.0145829E-1,1.2662192E-1,1.9609056E-1,-5.0504607E-1,-1.26169E0,-5.7977045E-1,-2.3897223E-1,-3.5332765E-2],"categories":[],"categories_nodes":[],"categories_segments":[],"categories_sizes":[],"default_left":[true,true,true,true,true,true,true,false,false,false,false,false,false,false,false],"id":7,"left_children":[1,3,5,7,9,11,13,-1,-1,-1,-1,-1,-1,-1,-1],"loss_changes":[7.6205817E2,7.248546E2,3.3761963E2,3.3108105E2,4.7515448E2,4.145819E1,3.0519183E2,0E0,0E0,0E0,0E0,0E0,0E0,0E0,0E0],"parents":[2147483647,0,0,1,1,2,2,3,3,4,4,5,5,6,6],"right_children":[2,4,6,8,10,12,14,-1,-1,-1,-1,-1,-1,-1,-1],"split_conditions":[5E-1,5E-1,-9.361292E-1,-4.3633935E-1,1.5867696E0,8.567861E-2,5E-1,-6.043749E-2,3.7986577E-2,5.8827173E-2,-1.5151383E-1,-3.7850702E-1,-1.7393114E-1,-7.169167E-2,-1.059983E-2],"split_indices":[5,2,0,1,1,9,3,0,0,0,0,0,0,0,0],"split_type":[0,0,0,0,0,0,0,0,0,0,0,0,0,0,0],"sum_hessian":[8.444403E4,4.642622E4,3.8017812E4,1.4166664E4,3.2259555E4,3.9443976E2,3.762337E4,9.653337E3,4.5133276E3,3.1263092E4,9.964628E2,2.5257762E2,1.4186214E2,1.0036408E4,2.7586965E4],"tree_param":{"num_deleted":"0","num_feature":"10","num_nodes":"15","size_leaf_vector":"0"}},{"base_weights":[3.9029175E-3,-3.4020495E-2,2.0309366E-1,-7.856106E-2,9.660617E-2,3.1678182E-1,4.9244333E-2,-2.0663881E-1,-2.7712366E-2,1.79093E-1,-1.1338759E-1,1.445319E-1,4.1721687E-1,6.337298E-2,-1.515886E0],"categories":[],"categories_nodes":[],"categories_segments":[],"categories_sizes":[],"default_left":[true,true,true,true,true,true,true,false,false,false,false,false,false,false,false],"id":8,"left_children":[1,3,5,7,9,11,13,-1,-1,-1,-1,-1,-1,-1,-1],"loss_changes":[6.3555316E2,4.112285E2,2.3534625E2,3.4325534E2,3.1132977E2,1.3380573E2,1.2656871E2,0E0,0E0,0E0,0E0,0E0,0E0,0E0,0E0],"parents":[2147483647,0,0,1,1,2,2,3,3,4,4,5,5,6,6],"right_children":[2,4,6,8,10,12,14,-1,-1,-1,-1,-1,-1,-1,-1],"split_conditions":[1.2309096E0,5E-1,5E-1,-5.040115E-1,1.0011327E0,5E-1,5.6147842E0,-6.1991647E-2,-8.31371E-3,5.3727902E-2,-3.4016278E-2,4.3359574E-2,1.2516506E-1,1.9011894E-2,-4.547658E-1],"split_indices":[0,8,5,0,1,3,9,0,0,0,0,0,0,0,0],"split_type":[0,0,0,0,0,0,0,0,0,0,0,0,0,0,0],"sum_hessian":[8.413283E4,7.067754E4,1.3455286E4,5.270634E4,1.7971201E4,7.7369487E3,5.7183374E3,1.4977623E4,3.7728715E4,1.29029795E4,5.068222E3,2.8505637E3,4.886385E3,5.66813E3,5.020746E1],"tree_param":{"num_deleted":"0","num_feature":"10","num_nodes":"15","size_leaf_vector":"0"}},{"base_weights":[2.90814E-3,-1.6128458E-2,2.607591E-1,-1.2213848E-1,3.1829674E-2,2.8278825E-1,-1.3330535E0,-2.2093043E-1,-5.991469E-2,1.0572171E-1,-4.7590997E-2,4.2570013E-1,1.3973446E-1,-1.9219954E0,1.3858412E-1],"categories":[],"categories_nodes":[],"categories_segments":[],"categories_sizes":[],"default_left":[true,true,true,true,true,true,true,false,false,false,false,false,false,false,false],"id":9,"left_children":[1,3,5,7,9,11,13,-1,-1,-1,-1,-1,-1,-1,-1],"loss_changes":[4.0928412E2,3.94772E2,2.0165097E2,1.4866449E2,3.1375708E2,1.1555768E2,6.815488E1,0E0,0E0,0E0,0E0,0E0,0E0,0E0,0E0],"parents":[2147483647,0,0,1,1,2,2,3,3,4,4,5,5,6,6],"right_children":[2,4,6,8,10,12,14,-1,-1,-1,-1,-1,-1,-1,-1],"split_conditions":[2.0822463E0,5E-1,4.99568E0,-4.8957908E-1,5E-1,4.281801E-2,6.8226433E0,-6.627913E-2,-1.7974408E-2,3.1716514E-2,-1.42773E-2,1.2771004E-1,4.192034E-2,-5.7659864E-1,4.1575238E-2],"split_indices":[0,3,9,1,5,1,0,0,0,0,0,0,0,0,0],"split_type":[0,0,0,0,0,0,0,0,0,0,0,0,0,0,0],"sum_hessian":[8.3379086E4,7.764747E4,5.7316133E3,2.4185219E4,5.346225E4,5.654284E3,7.732907E1,9.34528E3,1.4839938E4,2.7694908E4,2.5767344E4,2.8275566E3,2.8267278E3,5.5008804E1,2.2320269E1],"tree_param":{"num_deleted":"0","num_feature":"10","num_nodes":"15","size_leaf_vector":"0"}},{"base_weights":[2.2200833E-3,-5.7404965E-1,9.979306E-3,-7.7692574E-1,6.5089926E-2,3.729224E-2,-1.2187628E-1,-1.4265424E-1,-8.529338E-1,-5.3872514E-1,5.946655E-1,-9.681802E-2,8.072059E-2,-3.138471E-1,-3.6354363E-2],"categories":[],"categories_nodes":[],"categories_segments":[],"categories_sizes":[],"default_left":[true,true,true,true,true,true,true,false,false,false,false,false,false,false,false],"id":10,"left_children":[1,3,5,7,9,11,13,-1,-1,-1,-1,-1,-1,-1,-1],"loss_changes":[3.7111975E2,1.4303223E2,2.9493988E2,4.023398E1,8.5571884E1,3.9513922E2,2.3071165E2,0E0,0E0,0E0,0E0,0E0,0E0,0E0,0E0],"parents":[2147483647,0,0,1,1,2,2,3,3,4,4,5,5,6,6],"right_children":[2,4,6,8,10,12,14,-1,-1,-1,-1,-1,-1,-1,-1],"split_conditions":[-8.974321E-1,2.0638442E-1,1.0011327E0,-1.2881746E0,-9.4902825E-1,5E-1,5E-1,-4.2796273E-2,-2.5588015E-1,-1.6161755E-1,1.7839967E-1,-2.9045409E-2,2.4216177E-2,-9.4154134E-2,-1.0906309E-2],"split_indices":[0,9,1,1,0,2,4,0,0,0,0,0,0,0,0],"split_type":[0,0,0,0,0,0,0,0,0,0,0,0,0,0,0],"sum_hessian":[8.299618E4,1.101691E3,8.1894484E4,8.3608496E2,2.6560617E2,6.784219E4,1.4052303E4,8.977855E1,7.463064E2,1.2409613E2,1.4151004E2,1.6594816E4,5.1247367E4,4.330029E3,9.722274E3],"tree_param":{"num_deleted":"0","num_feature":"10","num_nodes":"15","size_leaf_vector":"0"}},{"base_weights":[1.400281E-3,-6.532296E-2,5.4386012E-2,-1.1638505E-1,5.5674877E-2,9.97287E-2,-6.504417E-2,-1.00699835E-1,-5.10981E-1,-1.3920493E-1,1.1074252E-1,-1.7769549E-2,1.7517385E-1,-8.8231884E-2,3.3366397E-1],"categories":[],"categories_nodes":[],"categories_segments":[],"categories_sizes":[],"default_left":[true,true,true,true,true,true,true,false,false,false,false,false,false,false,false],"id":11,"left_children":[1,3,5,7,9,11,13,-1,-1,-1,-1,-1,-1,-1,-1],"loss_changes":[2.926458E2,2.2637431E2,2.4985565E2,1.5942084E2,1.1670921E2,2.9645395E2,1.17414215E2,0E0,0E0,0E0,0E0,0E0,0E0,0E0,0E0],"parents":[2147483647,0,0,1,1,2,2,3,3,4,4,5,5,6,6],"right_children":[2,4,6,8,10,12,14,-1,-1,-1,-1,-1,-1,-1,-1],"split_conditions":[-1.3638872E-1,5E-1,1.5965962E-1,1.320571E0,5E-1,-6.492982E-1,4.2492847E0,-3.0209951E-2,-1.5329431E-1,-4.176148E-2,3.3222757E-2,-5.330865E-3,5.2552156E-2,-2.6469566E-2,1.000992E-1],"split_indices":[0,4,9,1,3,1,0,0,0,0,0,0,0,0,0],"split_type":[0,0,0,0,0,0,0,0,0,0,0,0,0,0,0],"sum_hessian":[8.2774336E4,3.6637574E4,4.613676E4,2.5764697E4,1.0872878E4,3.3440832E4,1.2695932E4,2.4780908E4,9.8378796E2,2.3951418E3,8.477735E3,1.3076405E4,2.0364426E4,1.199889E4,6.9704193E2],"tree_param":{"num_deleted":"0","num_feature":"10","num_nodes":"15","size_leaf_vector":"0"}},{"base_weights":[9.890139E-4,4.907822E-2,-5.6947157E-2,-5.187174E-2,1.0089003E-1,-1.1572826E-1,2.0384956E-2,-8.412864E-2,4.209065E-1,1.13505825E-1,-4.6261594E-1,-9.967013E-2,-7.309593E-1,7.3545948E-3,4.466545E-1],"categories":[],"categories_nodes":[],"categories_segments":[],"categories_sizes":[],"default_left":[true,true,true,true,true,true,true,false,false,false,false,false,false,false,false],"id":12,"left_children":[1,3,5,7,9,11,13,-1,-1,-1,-1,-1,-1,-1,-1],"loss_changes":[2.2929066E2,2.3521954E2,1.6967993E2,2.326527E2,2.1132281E2,2.094458E2,8.953896E1,0E0,0E0,0E0,0E0,0E0,0E0,0E0,0E0],"parents":[2147483647,0,0,1,1,2,2,3,3,4,4,5,5,6,6],"right_children":[2,4,6,8,10,12,14,-1,-1,-1,-1,-1,-1,-1,-1],"split_conditions":[5E-1,-7.557776E-1,5E-1,2.4305203E0,1.7464886E0,1.7424634E0,4.1847897E0,-2.5238594E-2,1.2627196E-1,3.405175E-2,-1.3878478E-1,-2.9901039E-2,-2.192878E-1,2.2063786E-3,1.3399635E-1],"split_indices":[5,1,4,0,1,9,0,0,0,0,0,0,0,0,0],"split_type":[0,0,0,0,0,0,0,0,0,0,0,0,0,0,0],"sum_hessian":[8.2295945E4,4.496962E4,3.7326324E4,1.52522295E4,2.971739E4,2.1206502E4,1.6119823E4,1.4278829E4,9.7339966E2,2.9067428E4,6.499642E2,2.0668205E4,5.382983E2,1.564267E4,4.771535E2],"tree_param":{"num_deleted":"0","num_feature":"10","num_nodes":"15","size_leaf_vector":"0"}},{"base_weights":[7.5552997E-4,-6.8462276E-1,4.2660497E-3,5.300699E-1,-8.3342034E-1,1.943616E-1,-6.420178E-3,-1.3679498E-1,3.0864894E0,-1.109954E0,-2.3815101E-1,-7.4891645E-1,2.209016E-1,-7.4601136E-2,2.378292E-2],"categories":[],"categories_nodes":[],"categories_segments":[],"categories_sizes":[],"default_left":[true,true,true,true,true,true,true,false,false,false,false,false,false,false,false],"id":13,"left_children":[1,3,5,7,9,11,13,-1,-1,-1,-1,-1,-1,-1,-1],"loss_changes":[1.9724803E2,7.5950165E1,1.6568782E2,7.9186775E1,6.106418E1,1.0884175E2,1.5902429E2,0E0,0E0,0E0,0E0,0E0,0E0,0E0,0E0],"parents":[2147483647,0,0,1,1,2,2,3,3,4,4,5,5,6,6],"right_children":[2,4,6,8,10,12,14,-1,-1,-1,-1,-1,-1,-1,-1],"split_conditions":[-9.619273E-1,-1.2881746E0,-8.560215E-1,-1.4794557E-1,8.567861E-2,-1.9270511E0,5E-1,-4.10385E-2,9.259469E-1,-3.329862E-1,-7.144531E-2,-2.2467494E-1,6.627048E-2,-2.238034E-2,7.134876E-3],"split_indices":[0,1,9,9,9,1,3,0,0,0,0,0,0,0,0],"split_type":[0,0,0,0,0,0,0,0,0,0,0,0,0,0,0],"sum_hessian":[8.197834E4,4.1676608E2,8.156158E4,4.5202007E1,3.7156406E2,4.340045E3,7.722153E4,3.660084E1,8.601166E0,2.5311453E2,1.1844953E2,1.1802462E2,4.2220205E3,2.3705926E4,5.351561E4],"tree_param":{"num_deleted":"0","num_feature":"10","num_nodes":"15","size_leaf_vector":"0"}},{"base_weights":[4.1944018E-4,-2.676237E-2,6.95488E-2,-2.1172334E-2,-4.9976394E-1,-3.0143663E-1,8.50596E-2,-6.882027E-2,3.2458406E-2,-5.572216E-1,1.2428904E0,-4.2161155E-1,2.4993607E-1,1.0591598E-1,-1.6692324E-1],"categories":[],"categories_nodes":[],"categories_segments":[],"categories_sizes":[],"default_left":[true,true,true,true,true,true,true,false,false,false,false,false,false,false,false],"id":14,"left_children":[1,3,5,7,9,11,13,-1,-1,-1,-1,-1,-1,-1,-1],"loss_changes":[1.539271E2,1.5545609E2,1.3306097E2,1.4850114E2,6.945334E1,6.1598564E1,1.1664827E2,0E0,0E0,0E0,0E0,0E0,0E0,0E0,0E0],"parents":[2147483647,0,0,1,1,2,2,3,3,4,4,5,5,6,6],"right_children":[2,4,6,8,10,12,14,-1,-1,-1,-1,-1,-1,-1,-1],"split_conditions":[6.375537E-1,1.7997284E0,-1.7140923E0,5E-1,4.524538E0,2.8432894E0,1.8222849E0,-2.064608E-2,9.737522E-3,-1.6716649E-1,3.728671E-1,-1.2648347E-1,7.4980825E-2,3.1774797E-2,-5.0076973E-2],"split_indices":[0,1,1,7,9,0,9,0,0,0,0,0,0,0,0],"split_type":[0,0,0,0,0,0,0,0,0,0,0,0,0,0,0],"sum_hessian":[8.191502E4,5.8796664E4,2.3118361E4,5.811094E4,6.857231E2,9.2704254E2,2.2191318E4,3.0771705E4,2.7339236E4,6.644941E2,2.1229013E1,7.613395E2,1.6570306E2,2.0495504E4,1.6958136E3],"tree_param":{"num_deleted":"0","num_feature":"10","num_nodes":"15","size_leaf_vector":"0"}},{"base_weights":[3.2305968E-4,-1.3081554E-1,1.3317408E-2,-2.8508925E-1,1.4335905E-2,5.4510903E-2,-3.7204705E-2,-2.0474824E-1,-7.576316E-1,2.409617E-2,-1.4746469E0,-9.605382E-3,1.00051746E-1,2.3560287E-1,-4.8755605E-2],"categories":[],"categories_nodes":[],"categories_segments":[],"categories_sizes":[],"default_left":[true,true,true,true,true,true,true,false,false,false,false,false,false,false,false],"id":15,"left_children":[1,3,5,7,9,11,13,-1,-1,-1,-1,-1,-1,-1,-1],"loss_changes":[1.3899086E2,1.6467078E2,1.5444868E2,1.3517969E2,5.51108E1,1.193669E2,1.0504643E2,0E0,0E0,0E0,0E0,0E0,0E0,0E0,0E0],"parents":[2147483647,0,0,1,1,2,2,3,3,4,4,5,5,6,6],"right_children":[2,4,6,8,10,12,14,-1,-1,-1,-1,-1,-1,-1,-1],"split_conditions":[-7.684417E-1,5E-1,5E-1,-8.909825E-1,4.563475E0,-5.428188E-1,-8.2876533E-1,-6.1424475E-2,-2.2728948E-1,7.2288513E-3,-4.423941E-1,-2.8816145E-3,3.0015524E-2,7.0680864E-2,-1.4626682E-2],"split_indices":[0,7,5,0,9,1,9,0,0,0,0,0,0,0,0],"split_type":[0,0,0,0,0,0,0,0,0,0,0,0,0,0,0],"sum_hessian":[8.1562484E4,7.352473E3,7.4210016E4,3.563769E3,3.788704E3,4.0879004E4,3.333101E4,3.047133E3,5.166361E2,3.7650085E3,2.369577E1,1.6977467E4,2.3901537E4,1.3531482E3,3.1977861E4],"tree_param":{"num_deleted":"0","num_feature":"10","num_nodes":"15","size_leaf_vector":"0"}},{"base_weights":[1.2309315E-4,7.7110846E-3,-1.9803484E-1,1.3104779E-2,-3.1115612E-1,-2.3921956E-1,5.394248E-1,3.9473935E-3,1.8616483E-1,-3.8319194E-1,2.5456777E-1,-1.6493523E0,-2.2290753E-1,-1.4060098E0,7.47393E-1],"categories":[],"categories_nodes":[],"categories_segments":[],"categories_sizes":[],"default_left":[true,true,true,true,true,true,true,false,false,false,false,false,false,false,false],"id":16,"left_children":[1,3,5,7,9,11,13,-1,-1,-1,-1,-1,-1,-1,-1],"loss_changes":[1.2227698E2,1.3470877E2,9.1220245E1,1.22059875E2,5.319146E1,6.4986786E1,6.5357086E1,0E0,0E0,0E0,0E0,0E0,0E0,0E0,0E0],"parents":[2147483647,0,0,1,1,2,2,3,3,4,4,5,5,6,6],"right_children":[2,4,6,8,10,12,14,-1,-1,-1,-1,-1,-1,-1,-1],"split_conditions":[1.5867696E0,2.8872218E0,3.784728E0,2.288631E0,1.4270504E0,-4.5944446E-1,5E-1,1.1842181E-3,5.584945E-2,-1.14957586E-1,7.6370336E-2,-4.9480572E-1,-6.687226E-2,-4.2180297E-1,2.242179E-1],"split_indices":[1,9,9,0,1,9,4,0,0,0,0,0,0,0,0],"split_type":[0,0,0,0,0,0,0,0,0,0,0,0,0,0,0],"sum_hessian":[8.131968E4,7.83215E4,2.9981765E3,7.7019664E4,1.3018419E3,2.8402341E3,1.5794228E2,7.314999E4,3.8696716E3,1.1550833E3,1.4675859E2,3.1334515E1,2.8088997E3,1.4697176E1,1.4324509E2],"tree_param":{"num_deleted":"0","num_feature":"10","num_nodes":"15","size_leaf_vector":"0"}},{"base_weights":[8.169988E-5,-4.3627942E-1,3.2454797E-3,5.342801E-1,-5.1726145E-1,-1.7008498E-2,6.1366834E-2,-1.085724E0,9.704381E-1,-8.634851E-1,-1.3847515E-1,4.3552734E-2,-5.0419576E-2,8.320453E-2,-1.8240839E-1],"categories":[],"categories_nodes":[],"categories_segments":[],"categories_sizes":[],"default_left":[true,true,true,true,true,true,true,false,false,false,false,false,false,false,false],"id":17,"left_children":[1,3,5,7,9,11,13,-1,-1,-1,-1,-1,-1,-1,-1],"loss_changes":[1.1203672E2,4.6190002E1,9.484651E1,3.3188446E1,7.065654E1,1.2089981E2,1.1085666E2,0E0,0E0,0E0,0E0,0E0,0E0,0E0,0E0],"parents":[2147483647,0,0,1,1,2,2,3,3,4,4,5,5,6,6],"right_children":[2,4,6,8,10,12,14,-1,-1,-1,-1,-1,-1,-1,-1],"split_conditions":[-9.361292E-1,-8.2740253E-1,5E-1,-1.3414145E0,3.6225626E-1,-5.1726645E-1,1.7736132E0,-3.257172E-1,2.9113144E-1,-2.5904554E-1,-4.1542545E-2,1.3065821E-2,-1.51258735E-2,2.496136E-2,-5.472252E-2],"split_indices":[0,9,8,1,1,9,9,0,0,0,0,0,0,0,0],"split_type":[0,0,0,0,0,0,0,0,0,0,0,0,0,0,0],"sum_hessian":[8.115163E4,5.831587E2,8.056847E4,4.4479527E1,5.386792E2,5.974826E4,2.082021E4,9.11919E0,3.5360336E1,2.80768E2,2.5791116E2,2.1242893E4,3.8505367E4,1.9109055E4,1.7111548E3],"tree_param":{"num_deleted":"0","num_feature":"10","num_nodes":"15","size_leaf_vector":"0"}},{"base_weights":[-2.444626E-5,-5.976614E-2,1.684438E-2,-2.0494597E-1,-3.5077803E-2,4.738139E-2,-4.7885656E-2,-3.0285788E-1,-1.0694555E-2,-2.7459973E-1,-1.0552626E-2,-4.544375E-1,5.1961713E-2,-1.4713E-1,6.143672E-3],"categories":[],"categories_nodes":[],"categories_segments":[],"categories_sizes":[],"default_left":[true,true,true,true,true,true,true,false,false,false,false,false,false,false,false],"id":18,"left_children":[1,3,5,7,9,11,13,-1,-1,-1,-1,-1,-1,-1,-1],"loss_changes":[8.170244E1,6.3976185E1,1.249689E2,4.9338448E1,8.962746E1,9.8759026E1,1.0866635E2,0E0,0E0,0E0,0E0,0E0,0E0,0E0,0E0],"parents":[2147483647,0,0,1,1,2,2,3,3,4,4,5,5,6,6],"right_children":[2,4,6,8,10,12,14,-1,-1,-1,-1,-1,-1,-1,-1],"split_conditions":[5E-1,-6.523503E-1,6.816945E-1,-1.0421696E-2,-1.7140923E0,-9.1033113E-1,5E-1,-9.0857364E-2,-3.2083667E-3,-8.237992E-2,-3.165788E-3,-1.3633126E-1,1.55885145E-2,-4.4139E-2,1.8431017E-3],"split_indices":[2,0,1,1,1,0,4,0,0,0,0,0,0,0,0],"split_type":[0,0,0,0,0,0,0,0,0,0,0,0,0,0,0],"sum_hessian":[8.107032E4,1.7850268E4,6.322005E4,2.593265E3,1.5257002E4,4.2955605E4,2.0264447E4,1.7238192E3,8.6944574E2,1.4161512E3,1.3840851E4,3.876401E2,4.2567965E4,7.142658E3,1.3121789E4],"tree_param":{"num_deleted":"0","num_feature":"10","num_nodes":"15","size_leaf_vector":"0"}},{"base_weights":[-1.0366125E-4,-2.8102629E-2,3.0307142E-2,-5.257366E-1,-2.343814E-2,1.7378326E-1,1.58702E-3,2.0638382E-1,-6.8850946E-1,-3.8462784E-2,1.0189252E-1,1.8502387E-1,-1.1279149E0,8.944077E-4,1.7760868E0],"categories":[],"categories_nodes":[],"categories_segments":[],"categories_sizes":[],"default_left":[true,true,true,true,true,true,true,false,false,false,false,false,false,false,false],"id":19,"left_children":[1,3,5,7,9,11,13,-1,-1,-1,-1,-1,-1,-1,-1],"loss_changes":[6.8860245E1,9.772377E1,1.5974245E2,4.6732452E1,7.855672E1,9.481445E1,3.9698444E1,0E0,0E0,0E0,0E0,0E0,0E0,0E0,0E0],"parents":[2147483647,0,0,1,1,2,2,3,3,4,4,5,5,6,6],"right_children":[2,4,6,8,10,12,14,-1,-1,-1,-1,-1,-1,-1,-1],"split_conditions":[5E-1,-8.974321E-1,-6.3661404E-2,-1.2881746E0,1.5533855E0,4.524538E0,2.5450842E0,6.1915148E-2,-2.0655285E-1,-1.1538835E-2,3.0567758E-2,5.5507164E-2,-3.383745E-1,2.6832233E-4,5.3282607E-1],"split_indices":[7,0,1,1,0,9,1,0,0,0,0,0,0,0,0],"split_type":[0,0,0,0,0,0,0,0,0,0,0,0,0,0,0],"sum_hessian":[8.0870086E4,4.210471E4,3.8765375E4,3.8995908E2,4.1714754E4,6.464724E3,3.230065E4,7.088125E1,3.1907782E2,3.7249926E4,4.464829E3,6.4102275E3,5.449669E1,3.2289047E4,1.1602367E1],"tree_param":{"num_deleted":"0","num_feature":"10","num_nodes":"15","size_leaf_vector":"0"}},{"base_weights":[-1.0845622E-4,-4.2443402E-2,1.9095274E-2,-3.0992156E-2,-3.270412E-1,1.3709469E-1,9.073279E-3,-7.771682E-2,1.6110228E-2,-9.566251E-1,-2.4828953E-1,-3.1471174E-2,1.911166E-1,-2.0824609E0,9.872623E-3],"categories":[],"categories_nodes":[],"categories_segments":[],"categories_sizes":[],"default_left":[true,true,true,true,true,true,true,false,false,false,false,false,false,false,false],"id":20,"left_children":[1,3,5,7,9,11,13,-1,-1,-1,-1,-1,-1,-1,-1],"loss_changes":[6.559301E1,8.20429E1,6.5637146E1,5.3271793E1,4.804236E1,3.9572517E1,8.555255E1,0E0,0E0,0E0,0E0,0E0,0E0,0E0,0E0],"parents":[2147483647,0,0,1,1,2,2,3,3,4,4,5,5,6,6],"right_children":[2,4,6,8,10,12,14,-1,-1,-1,-1,-1,-1,-1,-1],"split_conditions":[5E-1,1.9371502E0,-7.896201E-1,-1.16901115E-1,5E-1,-1.234935E0,-7.581843E-1,-2.3315046E-2,4.8330687E-3,-2.8698754E-1,-7.448686E-2,-9.441352E-3,5.733498E-2,-6.247383E-1,2.961787E-3],"split_indices":[3,9,9,1,2,1,9,0,0,0,0,0,0,0,0],"split_type":[0,0,0,0,0,0,0,0,0,0,0,0,0,0,0],"sum_hessian":[8.067931E4,2.5176371E4,5.5502945E4,2.420361E4,9.7276184E2,4.343985E3,5.1158957E4,1.2150196E4,1.2053412E4,1.0691086E2,8.65851E2,1.0543834E3,3.2896013E3,1.8549587E1,5.114041E4],"tree_param":{"num_deleted":"0","num_feature":"10","num_nodes":"15","size_leaf_vector":"0"}},{"base_weights":[-1.00975274E-4,2.5580063E-2,-3.073759E-2,3.7390366E-2,-1.4364792E-1,-6.457959E-2,2.680325E-2,-1.2890751E-2,8.47611E-2,-1.2873878E-1,-1.8836635E0,-5.481191E-1,-5.6705315E-2,1.391573E-1,-3.899418E-2],"categories":[],"categories_nodes":[],"categories_segments":[],"categories_sizes":[],"default_left":[true,true,true,true,true,true,true,false,false,false,false,false,false,false,false],"id":21,"left_children":[1,3,5,7,9,11,13,-1,-1,-1,-1,-1,-1,-1,-1],"loss_changes":[6.344895E1,8.768537E1,7.161134E1,9.767813E1,7.4007256E1,8.813443E1,1.0068716E2,0E0,0E0,0E0,0E0,0E0,0E0,0E0,0E0],"parents":[2147483647,0,0,1,1,2,2,3,3,4,4,5,5,6,6],"right_children":[2,4,6,8,10,12,14,-1,-1,-1,-1,-1,-1,-1,-1],"split_conditions":[5E-1,7.300919E-1,5E-1,-3.8309965E-1,5.971307E0,-1.6608527E0,-4.7176376E-1,-3.8672253E-3,2.542833E-2,-3.8621634E-2,-5.6509906E-1,-1.6443574E-1,-1.7011596E-2,4.174719E-2,-1.1698253E-2],"split_indices":[5,9,6,1,0,1,0,0,0,0,0,0,0,0,0],"split_type":[0,0,0,0,0,0,0,0,0,0,0,0,0,0,0],"sum_hessian":[8.064182E4,4.386897E4,3.677285E4,4.100784E4,2.8611296E3,2.3154607E4,1.3618244E4,1.989318E4,2.111466E4,2.8378875E3,2.3242151E1,3.699234E2,2.2784684E4,5.0292715E3,8.588973E3],"tree_param":{"num_deleted":"0","num_feature":"10","num_nodes":"15","size_leaf_vector":"0"}},{"base_weights":[-7.284391E-5,-6.1146226E-3,1.4918655E-1,-2.9452106E-3,-2.598679E-1,1.6168764E-1,-1.1873469E0,1.0377916E-1,-9.0424325E-3,-6.433621E-1,-1.6992661E-1,2.7895516E-1,6.141285E-2,-1.8351953E0,-3.6190093E-1],"categories":[],"categories_nodes":[],"categories_segments":[],"categories_sizes":[],"default_left":[true,true,true,true,true,true,true,false,false,false,false,false,false,false,false],"id":22,"left_children":[1,3,5,7,9,11,13,-1,-1,-1,-1,-1,-1,-1,-1],"loss_changes":[7.271683E1,6.23276E1,5.2605858E1,4.9809715E1,3.286564E1,3.6539627E1,1.4945465E1,0E0,0E0,0E0,0E0,0E0,0E0,0E0,0E0],"parents":[2147483647,0,0,1,1,2,2,3,3,4,4,5,5,6,6],"right_children":[2,4,6,8,10,12,14,-1,-1,-1,-1,-1,-1,-1,-1],"split_conditions":[2.662703E0,1.7997284E0,5.848408E0,-8.560215E-1,5E-1,9.605771E-2,1.0277526E0,3.1133749E-2,-2.7127299E-3,-1.9300865E-1,-5.0977986E-2,8.368655E-2,1.8423855E-2,-5.505586E-1,-1.08570285E-1],"split_indices":[0,1,9,9,4,1,1,0,0,0,0,0,0,0,0],"split_type":[0,0,0,0,0,0,0,0,0,0,0,0,0,0,0],"sum_hessian":[8.063389E4,7.749786E4,3.136029E3,7.654284E4,9.5501855E2,3.1078394E3,2.8189745E1,4.1357427E3,7.24071E4,1.802615E2,7.747571E2,1.4317181E3,1.6761212E3,1.5108563E1,1.3081182E1],"tree_param":{"num_deleted":"0","num_feature":"10","num_nodes":"15","size_leaf_vector":"0"}},{"base_weights":[-4.237845E-5,-2.8326638E-2,2.2477075E-2,-2.2070471E-2,-3.7323675E-1,6.656356E-2,-1.2559974E-2,-7.603585E-2,-1.0533516E-3,-4.537572E-1,1.3041252E0,1.1802875E-2,1.1887293E-1,-1.1710783E-1,6.4784875E-3],"categories":[],"categories_nodes":[],"categories_segments":[],"categories_sizes":[],"default_left":[true,true,true,true,true,true,true,false,false,false,false,false,false,false,false],"id":23,"left_children":[1,3,5,7,9,11,13,-1,-1,-1,-1,-1,-1,-1,-1],"loss_changes":[5.1279648E1,7.699677E1,6.923567E1,3.9755623E1,8.645165E1,5.685318E1,4.9711826E1,0E0,0E0,0E0,0E0,0E0,0E0,0E0,0E0],"parents":[2147483647,0,0,1,1,2,2,3,3,4,4,5,5,6,6],"right_children":[2,4,6,8,10,12,14,-1,-1,-1,-1,-1,-1,-1,-1],"split_conditions":[-1.3638872E-1,-2.3958099E-1,-3.618312E-1,5E-1,1.5867696E0,-7.025379E-1,5E-1,-2.2810755E-2,-3.160055E-4,-1.3612716E-1,3.912376E-1,3.5408628E-3,3.566188E-2,-3.5132352E-2,1.9435463E-3],"split_indices":[0,0,9,3,1,1,2,0,0,0,0,0,0,0,0],"split_type":[0,0,0,0,0,0,0,0,0,0,0,0,0,0,0],"sum_hessian":[8.050661E4,3.5685566E4,4.4821047E4,3.5050855E4,6.3470746E2,1.9847014E4,2.4974035E4,9.8238E3,2.5227057E4,6.063305E2,2.8376947E1,9.696912E3,1.0150101E4,3.8464543E3,2.112758E4],"tree_param":{"num_deleted":"0","num_feature":"10","num_nodes":"15","size_leaf_vector":"0"}},{"base_weights":[-2.8712446E-5,-2.080833E-2,2.2445137E-2,-1.5052862E-1,-9.717248E-3,1.1849103E-1,3.4150176E-3,-8.111308E-2,-5.818412E-1,-8.2608145E-3,-1.0128943E0,1.2864482E-1,-6.0821784E-1,-5.059449E-4,3.235273E-1],"categories":[],"categories_nodes":[],"categories_segments":[],"categories_sizes":[],"default_left":[true,true,true,true,true,true,true,false,false,false,false,false,false,false,false],"id":24,"left_children":[1,3,5,7,9,11,13,-1,-1,-1,-1,-1,-1,-1,-1],"loss_changes":[3.7509674E1,6.004212E1,7.052818E1,9.836767E1,5.6165634E1,4.7163864E1,4.0424957E1,0E0,0E0,0E0,0E0,0E0,0E0,0E0,0E0],"parents":[2147483647,0,0,1,1,2,2,3,3,4,4,5,5,6,6],"right_children":[2,4,6,8,10,12,14,-1,-1,-1,-1,-1,-1,-1,-1],"split_conditions":[5E-1,-7.684417E-1,-6.3661404E-2,-8.909825E-1,5.6101336E0,3.5511036E0,4.7652464E0,-2.4333924E-2,-1.7455235E-1,-2.4782445E-3,-3.038683E-1,3.859345E-2,-1.8246536E-1,-1.5178348E-4,9.70582E-2],"split_indices":[7,0,1,0,0,9,0,0,0,0,0,0,0,0,0],"split_type":[0,0,0,0,0,0,0,0,0,0,0,0,0,0,0],"sum_hessian":[8.031884E4,4.17325E4,3.8586344E4,3.286092E3,3.8446406E4,6.380159E3,3.2206186E4,2.8315671E3,4.5452496E2,3.839168E4,5.4729618E1,6.2930537E3,8.710544E1,3.181746E4,3.8872443E2],"tree_param":{"num_deleted":"0","num_feature":"10","num_nodes":"15","size_leaf_vector":"0"}},{"base_weights":[-4.4631186E-5,-3.270876E-1,1.2044591E-3,8.048127E-1,-4.964857E-1,1.074218E-2,-4.4658784E-2,-1.0862463E0,1.6199557E0,-8.313749E-1,4.1755226E-2,-3.3037274E-3,5.9832778E-2,-1.0892695E0,-3.6381382E-2],"categories":[],"categories_nodes":[],"categories_segments":[],"categories_sizes":[],"default_left":[true,true,true,true,true,true,true,false,false,false,false,false,false,false,false],"id":25,"left_children":[1,3,5,7,9,11,13,-1,-1,-1,-1,-1,-1,-1,-1],"loss_changes":[3.2767036E1,5.8917465E1,3.4954132E1,6.3588806E1,4.79961E1,4.561271E1,1.1891058E2,0E0,0E0,0E0,0E0,0E0,0E0,0E0,0E0],"parents":[2147483647,0,0,1,1,2,2,3,3,4,4,5,5,6,6],"right_children":[2,4,6,8,10,12,14,-1,-1,-1,-1,-1,-1,-1,-1],"split_conditions":[-9.619273E-1,-1.2881746E0,1.0011327E0,5E-1,8.567861E-2,5E-1,-6.5218437E-1,-3.2587388E-1,4.859867E-1,-2.4941248E-1,1.2526568E-2,-9.911183E-4,1.7949834E-2,-3.2678086E-1,-1.0914415E-2],"split_indices":[0,1,1,3,9,8,9,0,0,0,0,0,0,0,0],"split_type":[0,0,0,0,0,0,0,0,0,0,0,0,0,0,0],"sum_hessian":[8.0209875E4,3.0419116E2,7.990569E4,3.9110157E1,2.65081E2,6.6149914E4,1.3755771E4,1.1680305E1,2.7429852E1,1.6307341E2,1.0200759E2,5.1434344E4,1.4715572E4,1.0711592E2,1.3648655E4],"tree_param":{"num_deleted":"0","num_feature":"10","num_nodes":"15","size_leaf_vector":"0"}},{"base_weights":[-1.07224725E-4,1.8372737E-2,-2.2078909E-2,-5.1832512E-2,3.8032148E-2,-5.443356E-2,1.998913E-2,-1.5114814E-1,6.5750666E-3,5.4015726E-2,-6.0601864E-2,-6.970023E-2,1.2375264E-1,-5.202543E-1,2.7123783E-2],"categories":[],"categories_nodes":[],"categories_segments":[],"categories_sizes":[],"default_left":[true,true,true,true,true,true,true,false,false,false,false,false,false,false,false],"id":26,"left_children":[1,3,5,7,9,11,13,-1,-1,-1,-1,-1,-1,-1,-1],"loss_changes":[3.254268E1,6.0085606E1,4.9837044E1,5.5247364E1,5.3620564E1,5.631074E1,6.1371593E1,0E0,0E0,0E0,0E0,0E0,0E0,0E0,0E0],"parents":[2147483647,0,0,1,1,2,2,3,3,4,4,5,5,6,6],"right_children":[2,4,6,8,10,12,14,-1,-1,-1,-1,-1,-1,-1,-1],"split_conditions":[5E-1,-5.040115E-1,5E-1,-3.8309965E-1,2.2371155E-1,1.5662847E0,-6.492982E-1,-4.5344442E-2,1.97252E-3,1.6204719E-2,-1.818056E-2,-2.0910071E-2,3.7125792E-2,-1.560763E-1,8.137135E-3],"split_indices":[5,0,4,1,9,0,1,0,0,0,0,0,0,0,0],"split_type":[0,0,0,0,0,0,0,0,0,0,0,0,0,0,0],"sum_hessian":[8.014531E4,4.3531754E4,3.661356E4,9.522947E3,3.4008805E4,2.069595E4,1.5917609E4,3.525921E3,5.997027E3,2.9266621E4,4.742185E3,1.9063252E4,1.6326963E3,2.0653639E2,1.5711073E4],"tree_param":{"num_deleted":"0","num_feature":"10","num_nodes":"15","size_leaf_vector":"0"}},{"base_weights":[-9.119438E-5,1.3879873E-4,-1.4411072E0,-8.5424515E-4,5.4821706E-1,3.1677287E-4,-1.2964356E0,-5.86949E-1,7.656331E-1],"categories":[],"categories_nodes":[],"categories_segments":[],"categories_sizes":[],"default_left":[true,true,false,true,true,false,false,false,false],"id":27,"left_children":[1,3,-1,5,7,-1,-1,-1,-1],"loss_changes":[2.6483372E1,4.348487E1,0E0,1.2099613E2,3.6112377E1,0E0,0E0,0E0,0E0],"parents":[2147483647,0,0,1,1,3,3,4,4],"right_children":[2,4,-1,6,8,-1,-1,-1,-1],"split_conditions":[1.1299639E1,7.1372347E0,-4.3233216E-1,5.9652205E0,-1.16901115E-1,9.5031864E-5,-3.889307E-1,-1.760847E-1,2.2968994E-1],"split_indices":[9,9,0,9,1,0,0,0,0],"split_type":[0,0,0,0,0,0,0,0,0],"sum_hessian":[7.990628E4,7.989453E4,1.1751648E1,7.975103E4,1.4349966E2,7.968001E4,7.101944E1,2.279314E1,1.2070653E2],"tree_param":{"num_deleted":"0","num_feature":"10","num_nodes":"9","size_leaf_vector":"0"}},{"base_weights":[-1.0776378E-4,-3.6909264E-3,9.15896E-2,3.1918436E-5,-1.0907091E-1,1.00311846E-1,-9.1356516E-1,2.0100595E-3,-2.3037545E-1,-1.4300078E0,-9.19551E-2,1.9631706E-1,2.2263382E-2,-1.3674284E0,-2.0148626E-1],"categories":[],"categories_nodes":[],"categories_segments":[],"categories_sizes":[],"default_left":[true,true,true,true,true,true,true,false,false,false,false,false,false,false,false],"id":28,"left_children":[1,3,5,7,9,11,13,-1,-1,-1,-1,-1,-1,-1,-1],"loss_changes":[2.62523E1,3.016683E1,2.6434776E1,3.3851982E1,5.919039E1,2.2323357E1,8.110611E0,0E0,0E0,0E0,0E0,0E0,0E0,0E0,0E0],"parents":[2147483647,0,0,1,1,2,2,3,3,4,4,5,5,6,6],"right_children":[2,4,6,8,10,12,14,-1,-1,-1,-1,-1,-1,-1,-1],"split_conditions":[2.662703E0,1.5867696E0,5.848408E0,3.5374756E0,-4.1466647E-1,9.605771E-2,6.719451E0,6.0301786E-4,-6.9112636E-2,-4.2900237E-1,-2.7586533E-2,5.8895122E-2,6.679015E-3,-4.1022855E-1,-6.044588E-2],"split_indices":[0,1,9,9,9,1,0,0,0,0,0,0,0,0,0],"split_type":[0,0,0,0,0,0,0,0,0,0,0,0,0,0,0],"sum_hessian":[7.989746E4,7.689372E4,3.0037363E3,7.427089E4,2.6228289E3,2.978788E3,2.4948269E1,7.363966E4,6.3123517E2,3.249419E1,2.5903347E3,1.3350569E3,1.6437311E3,1.46746435E1,1.0273624E1],"tree_param":{"num_deleted":"0","num_feature":"10","num_nodes":"15","size_leaf_vector":"0"}},{"base_weights":[-9.65374E-5,-6.7869246E-2,4.2961263E-3,4.3372044E-1,-9.303202E-2,-7.727164E-1,4.822704E-3,7.3780644E-1,-2.256858E-1,-1.663389E-1,1.1129322E-1,-2.1047728E0,-3.1591856E-1,1.0536058E-1,1.1885031E-4],"categories":[],"categories_nodes":[],"categories_segments":[],"categories_sizes":[],"default_left":[true,true,true,true,true,true,true,false,false,false,false,false,false,false,false],"id":29,"left_children":[1,3,5,7,9,11,13,-1,-1,-1,-1,-1,-1,-1,-1],"loss_changes":[2.3757782E1,6.1350044E1,3.0668484E1,4.673091E1,6.9314514E1,3.0223005E1,3.5419636E1,0E0,0E0,0E0,0E0,0E0,0E0,0E0,0E0],"parents":[2147483647,0,0,1,1,2,2,3,3,4,4,5,5,6,6],"right_children":[2,4,6,8,10,12,14,-1,-1,-1,-1,-1,-1,-1,-1],"split_conditions":[-1.5011334E0,-8.909825E-1,-1.2050949E0,5E-1,5E-1,-1.0219761E0,-8.597205E-1,2.2134194E-1,-6.770574E-2,-4.9901675E-2,3.3387966E-2,-6.314319E-1,-9.477557E-2,3.1608175E-2,3.5655095E-5],"split_indices":[1,0,9,2,6,1,9,0,0,0,0,0,0,0,0],"split_type":[0,0,0,0,0,0,0,0,0,0,0,0,0,0,0],"sum_hessian":[7.980173E4,4.8566045E3,7.4945125E4,2.3122258E2,4.625382E3,4.976242E1,7.489536E4,1.5816548E2,7.3057106E1,3.4042178E3,1.221164E3,1.1785975E1,3.7976444E1,3.3465447E3,7.154882E4],"tree_param":{"num_deleted":"0","num_feature":"10","num_nodes":"15","size_leaf_vector":"0"}},{"base_weights":[-1.1641265E-4,-5.913774E-4,5.6829184E-1,-2.9658672E-4,-1.4216589E0,-1.1894284E0,7.841013E-1,-6.9953967E-4,6.478819E-1,1.9096968E-1,1.1808381E0],"categories":[],"categories_nodes":[],"categories_segments":[],"categories_sizes":[],"default_left":[true,true,true,true,false,false,true,false,false,false,false],"id":30,"left_children":[1,3,5,7,-1,-1,9,-1,-1,-1,-1],"loss_changes":[2.1547321E1,3.340646E1,2.6209894E1,2.0824818E1,0E0,0E0,1.38822365E1,0E0,0E0,0E0,0E0],"parents":[2147483647,0,0,1,1,2,2,3,3,6,6],"right_children":[2,4,6,8,-1,-1,10,-1,-1,-1,-1],"split_conditions":[2.2788858E0,2.225646E0,5E-1,2.1724062E0,-4.2649767E-1,-3.5682854E-1,7.2139746E-1,-2.0986192E-4,1.9436459E-1,5.7290904E-2,3.5425144E-1],"split_indices":[1,1,4,1,0,0,0,0,0,0,0],"split_type":[0,0,0,0,0,0,0,0,0,0,0],"sum_hessian":[7.981037E4,7.9744734E4,6.563614E1,7.9729195E4,1.5539064E1,6.6841054E0,5.895203E1,7.968066E4,4.8536133E1,2.4221548E1,3.4730484E1],"tree_param":{"num_deleted":"0","num_feature":"10","num_nodes":"11","size_leaf_vector":"0"}},{"base_weights":[-9.2337395E-5,-2.646011E-1,8.551627E-4,3.0111792E-2,-6.174259E-1,-1.414668E-2,1.7077021E-2,2.2151683E-1,-1.2875792E0,-7.425203E-1,1.3589454E0,-4.590307E-1,-1.18788965E-2,5.3596246E-1,1.447409E-2],"categories":[],"categories_nodes":[],"categories_segments":[],"categories_sizes":[],"default_left":[true,true,true,true,true,true,true,false,false,false,false,false,false,false,false],"id":31,"left_children":[1,3,5,7,9,11,13,-1,-1,-1,-1,-1,-1,-1,-1],"loss_changes":[2.0001848E1,2.9639296E1,1.9353033E1,3.967267E1,3.3074184E1,4.167848E1,5.159796E1,0E0,0E0,0E0,0E0,0E0,0E0,0E0,0E0],"parents":[2147483647,0,0,1,1,2,2,3,3,4,4,5,5,6,6],"right_children":[2,4,6,8,10,12,14,-1,-1,-1,-1,-1,-1,-1,-1],"split_conditions":[-9.619273E-1,-9.941748E-1,5E-1,5.9186435E-1,1.6821104E0,-8.974321E-1,-9.232302E-1,6.645505E-2,-3.8627377E-1,-2.2275609E-1,4.0768364E-1,-1.3770922E-1,-3.563669E-3,1.6078874E-1,4.3422272E-3],"split_indices":[0,0,7,9,9,0,0,0,0,0,0,0,0,0,0],"split_type":[0,0,0,0,0,0,0,0,0,0,0,0,0,0,0],"sum_hessian":[7.980691E4,2.8386368E2,7.952304E4,1.5516759E2,1.2869609E2,4.1315203E4,3.8207836E4,1.3621341E2,1.8954184E1,1.2162232E2,7.0737786E0,2.0851343E2,4.110669E4,1.8968588E2,3.801815E4],"tree_param":{"num_deleted":"0","num_feature":"10","num_nodes":"15","size_leaf_vector":"0"}},{"base_weights":[-1.3112645E-4,-8.0715306E-4,3.500277E-1,-2.4617582E-5,-1.0355185E0,7.7206606E-1,-8.2118034E-2,-7.95398E-4,4.8297527E-1,-1.3493066E0,5.588858E-1,-1.715054E-1,1.0036283E0,-1.4136647E0,3.9543375E-1],"categories":[],"categories_nodes":[],"categories_segments":[],"categories_sizes":[],"default_left":[true,true,true,true,true,true,true,false,false,false,false,false,false,false,false],"id":32,"left_children":[1,3,5,7,9,11,13,-1,-1,-1,-1,-1,-1,-1,-1],"loss_changes":[1.8885859E1,6.447512E1,2.8101656E1,2.9623035E1,3.0860611E1,1.7186916E1,4.943365E1,0E0,0E0,0E0,0E0,0E0,0E0,0E0,0E0],"parents":[2147483647,0,0,1,1,2,2,3,3,4,4,5,5,6,6],"right_children":[2,4,6,8,10,12,14,-1,-1,-1,-1,-1,-1,-1,-1],"split_conditions":[7.1372347E0,5.9652205E0,7.951026E0,5.303285E0,1.6400092E0,3.0901656E-1,5E-1,-2.3861941E-4,1.4489259E-1,-4.0479198E-1,1.6766575E-1,-5.1451623E-2,3.0108848E-1,-4.2409942E-1,1.1863013E-1],"split_indices":[9,9,9,9,1,1,3,0,0,0,0,0,0,0,0],"split_type":[0,0,0,0,0,0,0,0,0,0,0,0,0,0,0],"sum_hessian":[7.9780336E4,7.96276E4,1.5273361E2,7.956842E4,5.917629E1,7.68725E1,7.586112E1,7.944265E4,1.2577773E2,4.9573635E1,9.602657E0,1.519897E1,6.1673527E1,1.9507784E1,5.6353336E1],"tree_param":{"num_deleted":"0","num_feature":"10","num_nodes":"15","size_leaf_vector":"0"}},{"base_weights":[-1.3275947E-4,1.3992279E-2,-1.691367E-2,1.4155496E-4,8.260196E-2,-4.1056957E-2,2.379818E-2,1.4053872E-2,-1.4155526E-1,9.0178E-2,-6.123834E-1,-1.1790751E-1,-5.044095E-3,1.3548069E-1,-2.4590496E-2],"categories":[],"categories_nodes":[],"categories_segments":[],"categories_sizes":[],"default_left":[true,true,true,true,true,true,true,false,false,false,false,false,false,false,false],"id":33,"left_children":[1,3,5,7,9,11,13,-1,-1,-1,-1,-1,-1,-1,-1],"loss_changes":[1.890882E1,4.116143E1,3.583735E1,7.104875E1,3.8362164E1,6.3341843E1,7.335465E1,0E0,0E0,0E0,0E0,0E0,0E0,0E0,0E0],"parents":[2147483647,0,0,1,1,2,2,3,3,4,4,5,5,6,6],"right_children":[2,4,6,8,10,12,14,-1,-1,-1,-1,-1,-1,-1,-1],"split_conditions":[5E-1,1.1664143E0,5E-1,1.1076121E0,5.577886E0,4.281801E-2,9.605771E-2,4.2161616E-3,-4.246658E-2,2.70534E-2,-1.8371503E-1,-3.5372254E-2,-1.5132286E-3,4.0644206E-2,-7.377149E-3],"split_indices":[5,0,6,1,0,1,1,0,0,0,0,0,0,0,0],"split_type":[0,0,0,0,0,0,0,0,0,0,0,0,0,0,0],"sum_hessian":[7.977161E4,4.331344E4,3.6458168E4,3.6038996E4,7.2744463E3,2.2886068E4,1.35721E4,3.281773E4,3.221265E3,7.1968633E3,7.7582794E1,7.3018433E3,1.5584225E4,4.1022305E3,9.469869E3],"tree_param":{"num_deleted":"0","num_feature":"10","num_nodes":"15","size_leaf_vector":"0"}},{"base_weights":[-8.006139E-5,-2.3348654E-2,9.160318E-3,-2.587502E-2,8.231108E-1,-4.8711114E-3,4.3578383E-2,-3.980595E-2,1.0601718E-1,2.7056425E0,1.4867258E-1,2.3651654E-3,-1.3681278E-1,9.5380545E-2,2.0311628E-3],"categories":[],"categories_nodes":[],"categories_segments":[],"categories_sizes":[],"default_left":[true,true,true,true,true,true,true,false,false,false,false,false,false,false,false],"id":34,"left_children":[1,3,5,7,9,11,13,-1,-1,-1,-1,-1,-1,-1,-1],"loss_changes":[1.7125345E1,4.8435024E1,2.7532019E1,4.1479515E1,8.5171936E1,3.8668198E1,3.553441E1,0E0,0E0,0E0,0E0,0E0,0E0,0E0,0E0],"parents":[2147483647,0,0,1,1,2,2,3,3,4,4,5,5,6,6],"right_children":[2,4,6,8,10,12,14,-1,-1,-1,-1,-1,-1,-1,-1],"split_conditions":[-5.428188E-1,4.251976E0,4.6986616E-1,5E-1,4.407726E0,2.6993117E-1,-4.6708453E-2,-1.1941785E-2,3.1805154E-2,8.116928E-1,4.4601776E-2,7.0954964E-4,-4.1043833E-2,2.8614165E-2,6.093489E-4],"split_indices":[1,9,0,7,9,0,9,0,0,0,0,0,0,0,0],"split_type":[0,0,0,0,0,0,0,0,0,0,0,0,0,0,0],"sum_hessian":[7.9646836E4,2.2638455E4,5.7008383E4,2.2572055E4,6.639976E1,4.049883E4,1.6509555E4,2.0416309E4,2.1557456E3,1.671953E1,4.968023E1,3.8394105E4,2.104724E3,7.347368E3,9.162186E3],"tree_param":{"num_deleted":"0","num_feature":"10","num_nodes":"15","size_leaf_vector":"0"}},{"base_weights":[-3.3297743E-5,-2.0583881E-2,9.239408E-3,-1.0116617E-2,-1.3527988E-1,1.10794855E-2,-4.0023142E-1,1.2552697E-2,-8.529761E-2,-3.28979E-1,-1.2203883E-2,5.440461E-3,9.4706975E-2,-8.887388E-1,2.9805439E-2],"categories":[],"categories_nodes":[],"categories_segments":[],"categories_sizes":[],"default_left":[true,true,true,true,true,true,true,false,false,false,false,false,false,false,false],"id":35,"left_children":[1,3,5,7,9,11,13,-1,-1,-1,-1,-1,-1,-1,-1],"loss_changes":[1.5160319E1,2.9695463E1,4.1309708E1,3.8634846E1,4.930983E1,2.57366E1,5.1553722E1,0E0,0E0,0E0,0E0,0E0,0E0,0E0,0E0],"parents":[2147483647,0,0,1,1,2,2,3,3,4,4,5,5,6,6],"right_children":[2,4,6,8,10,12,14,-1,-1,-1,-1,-1,-1,-1,-1],"split_conditions":[5E-1,1.0766344E0,1.9594474E0,5E-1,8.414136E-1,1.4348581E0,3.7957287E-1,3.7658093E-3,-2.5589284E-2,-9.86937E-2,-3.6611652E-3,1.6321384E-3,2.8412094E-2,-2.6662165E-1,8.941632E-3],"split_indices":[3,9,1,6,1,9,0,0,0,0,0,0,0,0,0],"split_type":[0,0,0,0,0,0,0,0,0,0,0,0,0,0,0],"sum_hessian":[7.9554875E4,2.4734951E4,5.481992E4,2.2667393E4,2.067559E3,5.457564E4,2.4427878E2,1.74166E4,5.250792E3,8.0265466E2,1.2649044E3,5.112906E4,3.446582E3,1.1386514E2,1.3041364E2],"tree_param":{"num_deleted":"0","num_feature":"10","num_nodes":"15","size_leaf_vector":"0"}},{"base_weights":[-5.30766E-5,-2.5531228E-4,1.2019961E0,-1.1568788E-4,-1.3843005E0,2.0095696E0,4.5503768E-1,-4.346175E-4,5.95165E-1],"categories":[],"categories_nodes":[],"categories_segments":[],"categories_sizes":[],"default_left":[true,true,true,true,false,false,false,false,false],"id":36,"left_children":[1,3,5,7,-1,-1,-1,-1,-1],"loss_changes":[1.9333677E1,1.5366217E1,7.1556034E0,1.5095437E1,0E0,0E0,0E0,0E0,0E0],"parents":[2147483647,0,0,1,1,2,2,3,3],"right_children":[2,4,6,8,-1,-1,-1,-1,-1],"split_conditions":[2.5450842E0,2.385365E0,2.2195938E-1,2.2788858E0,-4.1529015E-1,6.0287094E-1,1.3651131E-1,-1.3038526E-4,1.7854951E-1],"split_indices":[1,1,9,1,0,0,0,0,0],"split_type":[0,0,0,0,0,0,0,0,0],"sum_hessian":[7.952837E4,7.951599E4,1.2378175E1,7.950897E4,7.020891E0,5.135546E0,7.242629E0,7.946739E4,4.1576454E1],"tree_param":{"num_deleted":"0","num_feature":"10","num_nodes":"9","size_leaf_vector":"0"}},{"base_weights":[-3.6750283E-5,1.14923656E-4,-1.2213631E0,-2.6201358E-4,1.0615046E0,-8.971079E-5,-1.4056393E0,1.7213824E0,-7.4506626E-2],"categories":[],"categories_nodes":[],"categories_segments":[],"categories_sizes":[],"default_left":[true,true,false,true,true,false,false,false,false],"id":37,"left_children":[1,3,-1,5,7,-1,-1,-1,-1],"loss_changes":[1.473235E1,3.1814455E1,0E0,1.92491E1,2.129074E1,0E0,0E0,0E0,0E0],"parents":[2147483647,0,0,1,1,3,3,4,4],"right_children":[2,4,-1,6,8,-1,-1,-1,-1],"split_conditions":[1.1299639E1,1.0053643E1,-3.6640894E-1,9.171713E0,1.054036E1,-2.6913238E-5,-4.216918E-1,5.1641476E-1,-2.2351988E-2],"split_indices":[9,9,0,9,9,0,0,0,0],"split_type":[0,0,0,0,0,0,0,0,0],"sum_hessian":[7.952795E4,7.951907E4,8.8754E0,7.949184E4,2.7230627E1,7.94831E4,8.744764E0,1.689911E1,1.0331516E1],"tree_param":{"num_deleted":"0","num_feature":"10","num_nodes":"9","size_leaf_vector":"0"}},{"base_weights":[-4.0150884E-5,1.2868778E-1,-1.3535945E-3,-4.8349854E-1,2.6622087E-1,-3.4077305E-1,-1.18228294E-4,-9.3255955E-1,3.1503972E-1,6.250859E-1,-3.5900142E-2,-8.134827E-1,3.734505E-1,6.4230226E-2,-3.5784913E-3],"categories":[],"categories_nodes":[],"categories_segments":[],"categories_sizes":[],"default_left":[true,true,true,true,true,true,true,false,false,false,false,false,false,false,false],"id":38,"left_children":[1,3,5,7,9,11,13,-1,-1,-1,-1,-1,-1,-1,-1],"loss_changes":[1.3446294E1,6.775867E1,3.3009678E1,5.326051E1,7.120473E1,9.669085E1,1.7465864E1,0E0,0E0,0E0,0E0,0E0,0E0,0E0,0E0],"parents":[2147483647,0,0,1,1,2,2,3,3,4,4,5,5,6,6],"right_children":[2,4,6,8,10,12,14,-1,-1,-1,-1,-1,-1,-1,-1],"split_conditions":[-1.9270511E0,-7.923589E-1,-1.8738115E0,1.534037E0,2.7638057E-1,5E-1,-8.560215E-1,-2.7976787E-1,9.451192E-2,1.8752578E-1,-1.0770043E-2,-2.4404483E-1,1.1203515E-1,1.9269068E-2,-1.0735474E-3],"split_indices":[1,9,1,0,0,2,9,0,0,0,0,0,0,0,0],"split_type":[0,0,0,0,0,0,0,0,0,0,0,0,0,0,0],"sum_hessian":[7.952566E4,8.022453E2,7.8723414E4,1.467073E2,6.55538E2,2.8448944E2,7.843892E4,9.379404E1,5.291326E1,2.9914227E2,3.5639575E2,1.7110466E2,1.1338479E2,4.001824E3,7.44371E4],"tree_param":{"num_deleted":"0","num_feature":"10","num_nodes":"15","size_leaf_vector":"0"}},{"base_weights":[-9.034223E-5,-2.311528E-3,6.4360194E-2,-6.658895E-1,-1.9851818E-3,-3.7460104E-1,8.469659E-2,-1.1866032E0,6.8578327E-1,-4.8174823E-4,-1.2869228E-1,-7.2865766E-1,1.7844789E-1,2.0327172E-1,2.9515715E-3],"categories":[],"categories_nodes":[],"categories_segments":[],"categories_sizes":[],"default_left":[true,true,true,true,true,true,true,false,false,false,false,false,false,false,false],"id":39,"left_children":[1,3,5,7,9,11,13,-1,-1,-1,-1,-1,-1,-1,-1],"loss_changes":[1.1384602E1,1.6646652E1,2.368275E1,2.740876E1,1.4637491E1,2.3136387E1,2.4550806E1,0E0,0E0,0E0,0E0,0E0,0E0,0E0,0E0],"parents":[2147483647,0,0,1,1,2,2,3,3,4,4,5,5,6,6],"right_children":[2,4,6,8,10,12,14,-1,-1,-1,-1,-1,-1,-1,-1],"split_conditions":[2.7400973E0,-1.2226168E0,-8.079338E-1,1.4953399E0,1.7997284E0,-8.62257E-1,9.605771E-2,-3.5598096E-1,2.0573498E-1,-1.4452447E-4,-3.8607687E-2,-2.1859731E-1,5.353437E-2,6.0981516E-2,8.8547147E-4],"split_indices":[0,9,9,0,1,1,1,0,0,0,0,0,0,0,0],"split_type":[0,0,0,0,0,0,0,0,0,0,0,0,0,0,0],"sum_hessian":[7.952347E4,7.6875055E4,2.648413E3,3.678588E1,7.683827E4,1.1649291E2,2.5319202E3,2.664383E1,1.0142053E1,7.5938234E4,9.0003564E2,7.083043E1,4.5662483E1,1.0325988E3,1.4993213E3],"tree_param":{"num_deleted":"0","num_feature":"10","num_nodes":"15","size_leaf_vector":"0"}},{"base_weights":[-3.8855917E-5,-1.5507491E-2,9.374331E-3,-4.7854537E-1,-1.2121145E-2,9.007314E-2,1.2003236E-3,6.3046545E-2,-7.713621E-1,-3.3177957E-2,5.027272E-2,1.689247E-1,-9.438549E-3,-6.899496E-2,8.938568E-3],"categories":[],"categories_nodes":[],"categories_segments":[],"categories_sizes":[],"default_left":[true,true,true,true,true,true,true,false,false,false,false,false,false,false,false],"id":40,"left_children":[1,3,5,7,9,11,13,-1,-1,-1,-1,-1,-1,-1,-1],"loss_changes":[1.1572522E1,4.7139862E1,3.259191E1,3.4663326E1,3.921906E1,3.565972E1,2.4371288E1,0E0,0E0,0E0,0E0,0E0,0E0,0E0,0E0],"parents":[2147483647,0,0,1,1,2,2,3,3,4,4,5,5,6,6],"right_children":[2,4,6,8,10,12,14,-1,-1,-1,-1,-1,-1,-1,-1],"split_conditions":[-2.2338054E-1,-8.974321E-1,-6.3661404E-2,-9.7482634E-1,5E-1,-3.2467008E-1,-5.3342545E-1,1.8913964E-2,-2.3140864E-1,-9.953387E-3,1.5081817E-2,5.0677415E-2,-2.8315648E-3,-2.069849E-2,2.6815704E-3],"split_indices":[1,0,1,0,6,9,9,0,0,0,0,0,0,0,0],"split_type":[0,0,0,0,0,0,0,0,0,0,0,0,0,0,0],"sum_hessian":[7.947461E4,3.0066258E4,4.9408355E4,2.172692E2,2.9848988E4,4.5433735E3,4.486498E4,7.6521065E1,1.4074814E2,2.231765E4,7.531339E3,2.5344307E3,2.0089425E3,4.4539863E3,4.0410992E4],"tree_param":{"num_deleted":"0","num_feature":"10","num_nodes":"15","size_leaf_vector":"0"}},{"base_weights":[-5.631017E-5,1.2048397E-2,-1.4391625E-2,1.2674684E-2,-9.7631454E-1,3.353398E-2,-3.073583E-2,1.1659892E-2,7.256531E-1,-1.6173787E0,3.6321056E-1,4.1639656E-1,1.5025232E-2,-5.719343E-1,-2.246724E-2],"categories":[],"categories_nodes":[],"categories_segments":[],"categories_sizes":[],"default_left":[true,true,true,true,true,true,true,false,false,false,false,false,false,false,false],"id":41,"left_children":[1,3,5,7,9,11,13,-1,-1,-1,-1,-1,-1,-1,-1],"loss_changes":[1.3787639E1,2.6678703E1,2.8494947E1,3.1141798E1,2.4024961E1,6.555087E1,1.2137567E2,0E0,0E0,0E0,0E0,0E0,0E0,0E0,0E0],"parents":[2147483647,0,0,1,1,2,2,3,3,4,4,5,5,6,6],"right_children":[2,4,6,8,10,12,14,-1,-1,-1,-1,-1,-1,-1,-1],"split_conditions":[5E-1,7.405903E0,-6.265522E-1,5.809471E0,1.1182827E1,-1.0752158E0,-5.040115E-1,3.4979677E-3,2.1769594E-1,-4.8521364E-1,1.0896317E-1,1.24918975E-1,4.5075696E-3,-1.7158028E-1,-6.7401724E-3],"split_indices":[5,9,0,9,9,1,0,0,0,0,0,0,0,0,0],"split_type":[0,0,0,0,0,0,0,0,0,0,0,0,0,0,0],"sum_hessian":[7.9454305E4,4.3078812E4,3.637549E4,4.3052516E4,2.6293497E1,9.250241E3,2.712525E4,4.2992344E4,6.0175182E1,1.7642702E1,8.650795E0,4.2557224E2,8.824669E3,4.0716516E2,2.6718084E4],"tree_param":{"num_deleted":"0","num_feature":"10","num_nodes":"15","size_leaf_vector":"0"}},{"base_weights":[-1.0112974E-4,1.6240089E-3,-8.643322E-2,8.260907E-4,9.079636E-1,-4.2510125E-1,-7.3701353E-3,-2.4668984E-3,6.959331E-2,-1.8980213E0,1.2980803E0,-1.278786E0,-1.0738246E-1,2.2146684E-1,-1.2864444E-1],"categories":[],"categories_nodes":[],"categories_segments":[],"categories_sizes":[],"default_left":[true,true,true,true,true,true,true,false,false,false,false,false,false,false,false],"id":42,"left_children":[1,3,5,7,9,11,13,-1,-1,-1,-1,-1,-1,-1,-1],"loss_changes":[1.1835223E1,5.634187E1,4.168257E1,1.7627354E1,7.747862E1,7.977808E1,3.5084423E1,0E0,0E0,0E0,0E0,0E0,0E0,0E0,0E0],"parents":[2147483647,0,0,1,1,2,2,3,3,4,4,5,5,6,6],"right_children":[2,4,6,8,10,12,14,-1,-1,-1,-1,-1,-1,-1,-1],"split_conditions":[2.8132408E0,2.7879314E0,3.1753583E0,1.4270706E0,8.946533E-1,-9.4880536E-4,-1.10590644E-1,-7.4006955E-4,2.0877995E-2,-5.6940645E-1,3.8942412E-1,-3.836358E-1,-3.221474E-2,6.644005E-2,-3.8593333E-2],"split_indices":[9,9,9,9,1,0,0,0,0,0,0,0,0,0,0],"split_type":[0,0,0,0,0,0,0,0,0,0,0,0,0,0,0],"sum_hessian":[7.946384E4,7.7908016E4,1.5558228E3,7.784049E4,6.752788E1,2.936389E2,1.2621838E3,7.428427E4,3.556215E3,7.7706695E0,5.9757206E1,7.8823E1,2.148159E2,4.3691904E2,8.2526483E2],"tree_param":{"num_deleted":"0","num_feature":"10","num_nodes":"15","size_leaf_vector":"0"}},{"base_weights":[-1.05736355E-4,-2.0076028E-1,5.7893846E-4,4.9752468E-1,-3.385045E-1,2.373437E-1,-3.319638E-4,-1.1296557E0,1.1456759E0,-7.162793E-1,2.2747038E-1,-7.096776E-1,5.9518623E-1,-3.7129757E-1,5.9210503E-4],"categories":[],"categories_nodes":[],"categories_segments":[],"categories_sizes":[],"default_left":[true,true,true,true,true,true,true,false,false,false,false,false,false,false,false],"id":43,"left_children":[1,3,5,7,9,11,13,-1,-1,-1,-1,-1,-1,-1,-1],"loss_changes":[1.0916977E1,2.61599E1,1.7079744E1,4.867702E1,4.854785E1,1.0327878E2,2.7043934E1,0E0,0E0,0E0,0E0,0E0,0E0,0E0,0E0],"parents":[2147483647,0,0,1,1,2,2,3,3,4,4,5,5,6,6],"right_children":[2,4,6,8,10,12,14,-1,-1,-1,-1,-1,-1,-1,-1],"split_conditions":[-9.619273E-1,-1.2881746E0,-9.232302E-1,-1.6076128E0,5E-1,4.281801E-2,-8.974321E-1,-3.3889672E-1,3.437028E-1,-2.148838E-1,6.824112E-2,-2.1290328E-1,1.7855588E-1,-1.1138927E-1,1.7763152E-4],"split_indices":[0,1,0,1,8,1,0,0,0,0,0,0,0,0,0],"split_type":[0,0,0,0,0,0,0,0,0,0,0,0,0,0,0],"sum_hessian":[7.946191E4,2.692247E2,7.919268E4,4.392713E1,2.2529758E2,3.0251462E2,7.8890164E4,1.2301468E1,3.1625664E1,1.3495364E2,9.034393E1,8.26912E1,2.1982341E2,1.9502982E2,7.869513E4],"tree_param":{"num_deleted":"0","num_feature":"10","num_nodes":"15","size_leaf_vector":"0"}},{"base_weights":[-1.6131534E-4,-3.1602217E-4,8.8263404E-1,-1.9608848E-4,-1.1186655E0,1.5766832E0,2.7686855E-1,-4.7669894E-4,7.7648E-1],"categories":[],"categories_nodes":[],"categories_segments":[],"categories_sizes":[],"default_left":[true,true,true,true,false,false,false,false,false],"id":44,"left_children":[1,3,5,7,-1,-1,-1,-1,-1],"loss_changes":[1.0849799E1,1.06532E1,5.415679E0,1.7309414E1,0E0,0E0,0E0,0E0,0E0],"parents":[2147483647,0,0,1,1,2,2,3,3],"right_children":[2,4,6,8,-1,-1,-1,-1,-1],"split_conditions":[2.5450842E0,1.1299639E1,-3.113348E-2,1.0053643E1,-3.3559966E-1,4.7300497E-1,8.306057E-2,-1.4300969E-4,2.3294401E-1],"split_indices":[1,9,9,9,0,0,0,0,0],"split_type":[0,0,0,0,0,0,0,0,0],"sum_hessian":[7.9439336E4,7.9426414E4,1.29195595E1,7.94189E4,7.5168405E0,5.2740645E0,7.645495E0,7.939121E4,2.768439E1],"tree_param":{"num_deleted":"0","num_feature":"10","num_nodes":"9","size_leaf_vector":"0"}},{"base_weights":[-1.0984381E-4,3.698789E-3,-3.6912758E-2,-4.350337E-3,6.57827E-2,-2.5751767E-1,3.285643E-2,2.7460603E-3,-1.7979753E-1,1.2943037E-1,-8.5809454E-2,-2.3671207E-1,-1.8885479E0,-4.6534267E-1,6.4586885E-2],"categories":[],"categories_nodes":[],"categories_segments":[],"categories_sizes":[],"default_left":[true,true,true,true,true,true,true,false,false,false,false,false,false,false,false],"id":45,"left_children":[1,3,5,7,9,11,13,-1,-1,-1,-1,-1,-1,-1,-1],"loss_changes":[1.1134932E1,3.5974964E1,1.14674446E2,7.9344894E1,7.9729324E1,6.0300858E1,8.951713E1,0E0,0E0,0E0,0E0,0E0,0E0,0E0,0E0],"parents":[2147483647,0,0,1,1,2,2,3,3,4,4,5,5,6,6],"right_children":[2,4,6,8,10,12,14,-1,-1,-1,-1,-1,-1,-1,-1],"split_conditions":[1.0252371E0,4.164515E-1,5E-1,2.6492956E-1,1.2140915E0,5.2360616E0,1.0999968E0,8.238181E-4,-5.393926E-2,3.882911E-2,-2.5742838E-2,-7.101362E-2,-5.665644E-1,-1.3960281E-1,1.9376066E-2],"split_indices":[9,9,4,9,1,0,9,0,0,0,0,0,0,0,0],"split_type":[0,0,0,0,0,0,0,0,0,0,0,0,0,0,0],"sum_hessian":[7.943748E4,7.1988484E4,7.448991E3,6.3727234E4,8.261252E3,1.7891484E3,5.659843E3,6.125078E4,2.4764556E3,5.8184546E3,2.442797E3,1.767744E3,2.14044E1,3.380747E2,5.321768E3],"tree_param":{"num_deleted":"0","num_feature":"10","num_nodes":"15","size_leaf_vector":"0"}},{"base_weights":[-9.022108E-5,-2.163871E-2,5.9444215E-3,1.7351741E-2,-6.859252E-2,9.536756E-2,2.1275757E-3,9.588498E-3,8.9020497E-1,-5.9715837E-2,-1.023359E0,1.8785134E-1,-8.715602E-2,-1.8676916E0,2.442369E-3],"categories":[],"categories_nodes":[],"categories_segments":[],"categories_sizes":[],"default_left":[true,true,true,true,true,true,true,false,false,false,false,false,false,false,false],"id":46,"left_children":[1,3,5,7,9,11,13,-1,-1,-1,-1,-1,-1,-1,-1],"loss_changes":[1.0324276E1,3.1801273E1,2.1169712E1,6.430081E1,6.6727066E1,4.287593E1,3.501881E1,0E0,0E0,0E0,0E0,0E0,0E0,0E0,0E0],"parents":[2147483647,0,0,1,1,2,2,3,3,4,4,5,5,6,6],"right_children":[2,4,6,8,10,12,14,-1,-1,-1,-1,-1,-1,-1,-1],"split_conditions":[5E-1,1.9898632E-1,-8.663399E-1,2.5951915E0,2.6166072E0,3.150777E-1,-8.3324313E-1,2.8765495E-3,2.670615E-1,-1.7914752E-2,-3.070077E-1,5.6355406E-2,-2.6146807E-2,-5.603075E-1,7.3271076E-4],"split_indices":[2,0,9,9,9,0,9,0,0,0,0,0,0,0,0],"split_type":[0,0,0,0,0,0,0,0,0,0,0,0,0,0,0],"sum_hessian":[7.9392664E4,1.7368977E4,6.2023688E4,9.489513E3,7.879463E3,2.5380024E3,5.9485684E4,9.406858E3,8.265455E1,7.807933E3,7.15296E1,1.6844637E3,8.535386E2,9.014498E0,5.9476668E4],"tree_param":{"num_deleted":"0","num_feature":"10","num_nodes":"15","size_leaf_vector":"0"}},{"base_weights":[-8.897851E-5,-1.1709961E-2,1.1785294E-2,-6.94608E-3,-3.1147414E-1,3.3268835E-2,-2.5565997E-2,-1.2543861E0,-6.536758E-3,1.928121E-1,-5.0626576E-1,-1.0406624E-1,4.5137875E-2,9.295523E-1,-2.8875563E-2],"categories":[],"categories_nodes":[],"categories_segments":[],"categories_sizes":[],"default_left":[true,true,true,true,true,true,true,false,false,false,false,false,false,false,false],"id":47,"left_children":[1,3,5,7,9,11,13,-1,-1,-1,-1,-1,-1,-1,-1],"loss_changes":[1.0965042E1,5.7347107E1,3.1538895E1,2.0177124E1,6.1807163E1,4.0677017E1,4.5393826E1,0E0,0E0,0E0,0E0,0E0,0E0,0E0,0E0],"parents":[2147483647,0,0,1,1,2,2,3,3,4,4,5,5,6,6],"right_children":[2,4,6,8,10,12,14,-1,-1,-1,-1,-1,-1,-1,-1],"split_conditions":[5.5006533E-3,-1.10590644E-1,-2.5292877E-2,-1.2226168E0,-6.269367E-1,-1.6076128E0,-2.0335307E0,-3.7631583E-1,-1.9610275E-3,5.7843633E-2,-1.5187973E-1,-3.1219872E-2,1.3541363E-2,2.788657E-1,-8.662669E-3],"split_indices":[0,0,9,9,9,1,1,0,0,0,0,0,0,0,0],"split_type":[0,0,0,0,0,0,0,0,0,0,0,0,0,0,0],"sum_hessian":[7.946018E4,4.0158406E4,3.9301773E4,3.9531195E4,6.272103E2,2.4950799E4,1.4350976E4,1.1962193E1,3.9519234E4,1.747692E2,4.5244113E2,1.9841934E3,2.2966605E4,4.858922E1,1.4302387E4],"tree_param":{"num_deleted":"0","num_feature":"10","num_nodes":"15","size_leaf_vector":"0"}},{"base_weights":[-6.559034E-5,-1.0984728E-2,1.1734214E-2,-1.2462421E-2,4.7952148E-1,8.884432E-3,2.6504886E-1,-8.951195E-3,-4.065744E-1,6.627268E-1,-1.5268614E0,4.0383306E-1,7.221245E-3,-1.1134247E0,3.0067694E-1],"categories":[],"categories_nodes":[],"categories_segments":[],"categories_sizes":[],"default_left":[true,true,true,true,true,true,true,false,false,false,false,false,false,false,false],"id":48,"left_children":[1,3,5,7,9,11,13,-1,-1,-1,-1,-1,-1,-1,-1],"loss_changes":[1.02260475E1,2.9884567E1,2.753466E1,5.687036E1,4.653223E1,2.4775866E1,2.117456E1,0E0,0E0,0E0,0E0,0E0,0E0,0E0,0E0],"parents":[2147483647,0,0,1,1,2,2,3,3,4,4,5,5,6,6],"right_children":[2,4,6,8,10,12,14,-1,-1,-1,-1,-1,-1,-1,-1],"split_conditions":[5E-1,4.332966E0,4.7652464E0,1.7054728E0,5E-1,-1.6608527E0,-1.8688293E-1,-2.6853585E-3,-1.2197232E-1,1.9881806E-1,-4.5805845E-1,1.2114992E-1,2.1663737E-3,-3.340274E-1,9.0203084E-2],"split_indices":[7,9,0,9,8,1,9,0,0,0,0,0,0,0,0],"split_type":[0,0,0,0,0,0,0,0,0,0,0,0,0,0,0],"sum_hessian":[7.936586E4,4.1221215E4,3.8144645E4,4.109838E4,1.228379E2,3.7721312E4,4.2332852E2,4.073647E4,3.619071E2,1.1317357E2,9.664329E0,1.5716985E2,3.7564145E4,9.903523E0,4.1342502E2],"tree_param":{"num_deleted":"0","num_feature":"10","num_nodes":"15","size_leaf_vector":"0"}},{"base_weights":[-4.8832495E-5,-1.4795989E-1,8.122012E-4,-3.970487E-1,3.779264E-1,3.8398948E-1,-9.4843697E-4,-3.3550382E-1,-1.6708926E0,1.1278828E0,1.545841E-1,-1.7661624E-1,6.740392E-1,-2.3005676E-1,-1.4468931E-4],"categories":[],"categories_nodes":[],"categories_segments":[],"categories_sizes":[],"default_left":[true,true,true,true,true,true,true,false,false,false,false,false,false,false,false],"id":49,"left_children":[1,3,5,7,9,11,13,-1,-1,-1,-1,-1,-1,-1,-1],"loss_changes":[1.01052685E1,6.030508E1,5.3220554E1,2.3908478E1,2.4634357E1,5.878942E1,1.4460415E1,0E0,0E0,0E0,0E0,0E0,0E0,0E0,0E0],"parents":[2147483647,0,0,1,1,2,2,3,3,4,4,5,5,6,6],"right_children":[2,4,6,8,10,12,14,-1,-1,-1,-1,-1,-1,-1,-1],"split_conditions":[-1.9802909E0,-2.861732E-1,-1.9270511E0,-3.8156974E-1,-2.2582029E-1,-6.831177E-1,-1.8738115E0,-1.0065115E-1,-5.012678E-1,3.3836487E-1,4.637523E-2,-5.2984875E-2,2.0221177E-1,-6.901703E-2,-4.3406795E-5],"split_indices":[1,9,1,9,9,9,1,0,0,0,0,0,0,0,0],"split_type":[0,0,0,0,0,0,0,0,0,0,0,0,0,0,0],"sum_hessian":[7.934444E4,4.5822528E2,7.888621E4,3.1111093E2,1.4711435E2,3.5981863E2,7.852639E4,2.979777E2,1.3133216E1,3.282889E1,1.1428546E2,1.22821434E2,2.3699721E2,2.735226E2,7.825287E4],"tree_param":{"num_deleted":"0","num_feature":"10","num_nodes":"15","size_leaf_vector":"0"}},{"base_weights":[-5.2419877E-5,-3.695807E-2,3.1910047E-3,3.020314E-3,-5.188068E-1,7.3963456E-2,-3.5562227E-3,7.055023E-3,-1.2455785E0,-7.0675385E-1,-1.9686155E-2,-1.5231927E-1,1.20498106E-1,-4.2243272E-1,2.3288166E-3],"categories":[],"categories_nodes":[],"categories_segments":[],"categories_sizes":[],"default_left":[true,true,true,true,true,true,true,false,false,false,false,false,false,false,false],"id":50,"left_children":[1,3,5,7,9,11,13,-1,-1,-1,-1,-1,-1,-1,-1],"loss_changes":[9.49749E0,1.2347582E2,3.4827515E1,2.9830507E1,4.605258E1,6.6864136E1,1.641444E2,0E0,0E0,0E0,0E0,0E0,0E0,0E0,0E0],"parents":[2147483647,0,0,1,1,2,2,3,3,4,4,5,5,6,6],"right_children":[2,4,6,8,10,12,14,-1,-1,-1,-1,-1,-1,-1,-1],"split_conditions":[-8.2003784E-1,-8.909825E-1,-7.5554264E-1,4.563475E0,7.881739E-1,5E-1,-6.330018E-1,2.1165072E-3,-3.7367356E-1,-2.1202616E-1,-5.9058466E-3,-4.569578E-2,3.6149435E-2,-1.2672982E-1,6.98645E-4],"split_indices":[0,0,0,9,1,2,0,0,0,0,0,0,0,0,0],"split_type":[0,0,0,0,0,0,0,0,0,0,0,0,0,0,0],"sum_hessian":[7.9341664E4,6.4087407E3,7.293293E4,5.91867E3,4.9007083E2,6.347135E3,6.658579E4,5.900597E3,1.8072779E1,3.5571E2,1.3436084E2,1.0822474E3,5.264887E3,9.2156055E2,6.5664234E4],"tree_param":{"num_deleted":"0","num_feature":"10","num_nodes":"15","size_leaf_vector":"0"}},{"base_weights":[-1.4742099E-4,-5.725718E-4,2.79417E-1,1.1442966E-4,-2.9411945E-1,-5.234193E-1,7.4665964E-1,5.8060624E-2,-1.5761747E-3,-8.5524607E-1,2.12976E-1,4.3918413E-1,-1.2491497E0,1.0630683E0,-6.631905E-1],"categories":[],"categories_nodes":[],"categories_segments":[],"categories_sizes":[],"default_left":[true,true,true,true,true,true,true,false,false,false,false,false,false,false,false],"id":51,"left_children":[1,3,5,7,9,11,13,-1,-1,-1,-1,-1,-1,-1,-1],"loss_changes":[9.424706E0,1.5966772E1,4.5557022E1,7.738261E0,5.2783577E1,3.190345E1,3.4840565E1,0E0,0E0,0E0,0E0,0E0,0E0,0E0,0E0],"parents":[2147483647,0,0,1,1,2,2,3,3,4,4,5,5,6,6],"right_children":[2,4,6,8,10,12,14,-1,-1,-1,-1,-1,-1,-1,-1],"split_conditions":[2.1724062E0,2.0126872E0,3.860224E-1,-9.187908E-1,1.1038907E0,3.9717752E-1,5E-1,1.7418187E-2,-4.7285244E-4,-2.5657383E-1,6.3892804E-2,1.3175525E-1,-3.7474492E-1,3.189205E-1,-1.9895716E-1],"split_indices":[1,1,0,9,9,9,8,0,0,0,0,0,0,0,0],"split_type":[0,0,0,0,0,0,0,0,0,0,0,0,0,0,0],"sum_hessian":[7.9292125E4,7.917272E4,1.19404884E2,7.898886E4,1.8386171E2,4.3883003E1,7.552188E1,2.238258E3,7.67506E4,8.695503E1,9.690668E1,1.9032833E1,2.485017E1,6.1880245E1,1.3641636E1],"tree_param":{"num_deleted":"0","num_feature":"10","num_nodes":"15","size_leaf_vector":"0"}},{"base_weights":[-1.2929512E-4,2.1131507E-3,-4.756385E-2,-1.8628717E-3,2.1472432E-1,-2.89924E-1,1.9539997E-2,2.3855022E-3,-1.2637658E-1,-2.1439433E-1,3.1195033E-1,-2.0079051E-1,-1.1050785E0,-1.399162E0,2.6328055E-2],"categories":[],"categories_nodes":[],"categories_segments":[],"categories_sizes":[],"default_left":[true,true,true,true,true,true,true,false,false,false,false,false,false,false,false],"id":52,"left_children":[1,3,5,7,9,11,13,-1,-1,-1,-1,-1,-1,-1,-1],"loss_changes":[8.432714E0,6.399234E1,5.820605E1,3.9309067E1,5.8045654E1,5.6164032E1,2.7035995E1,0E0,0E0,0E0,0E0,0E0,0E0,0E0,0E0],"parents":[2147483647,0,0,1,1,2,2,3,3,4,4,5,5,6,6],"right_children":[2,4,6,8,10,12,14,-1,-1,-1,-1,-1,-1,-1,-1],"split_conditions":[1.7736132E0,1.4348581E0,5E-1,1.0252371E0,5.219754E-1,1.4802902E0,-8.974321E-1,7.156507E-4,-3.7912976E-2,-6.43183E-2,9.3585104E-2,-6.0237154E-2,-3.3152354E-1,-4.1974863E-1,7.898417E-3],"split_indices":[9,9,4,9,1,1,0,0,0,0,0,0,0,0,0],"split_type":[0,0,0,0,0,0,0,0,0,0,0,0,0,0,0],"sum_hessian":[7.927568E4,7.569805E4,3.5776333E3,7.430938E4,1.3886619E3,7.750502E2,2.802583E3,7.185857E4,2.4508142E3,2.5629004E2,1.1323718E3,6.997788E2,7.527136E1,1.2368886E1,2.790214E3],"tree_param":{"num_deleted":"0","num_feature":"10","num_nodes":"15","size_leaf_vector":"0"}},{"base_weights":[-1.3507255E-4,-1.2818985E-2,7.593705E-3,-5.475478E-3,-1.737928E-1,3.258486E-2,-1.35578625E-2,1.9318344E-2,-3.5199597E-2,-2.270809E-2,-4.097922E-1,3.805718E-2,-2.9422495E-1,-5.986393E-2,4.826088E-3],"categories":[],"categories_nodes":[],"categories_segments":[],"categories_sizes":[],"default_left":[true,true,true,true,true,true,true,false,false,false,false,false,false,false,false],"id":53,"left_children":[1,3,5,7,9,11,13,-1,-1,-1,-1,-1,-1,-1,-1],"loss_changes":[7.7691574E0,3.5470512E1,2.6031502E1,2.1150902E1,4.6669067E1,4.0382645E1,2.2705956E1,0E0,0E0,0E0,0E0,0E0,0E0,0E0,0E0],"parents":[2147483647,0,0,1,1,2,2,3,3,4,4,5,5,6,6],"right_children":[2,4,6,8,10,12,14,-1,-1,-1,-1,-1,-1,-1,-1],"split_conditions":[-2.2338054E-1,-2.7662024E-1,5.219754E-1,-5.1765585E-1,-3.5626045E-1,2.497848E0,-5.858432E-2,5.7955035E-3,-1.0559879E-2,-6.812427E-3,-1.2293767E-1,1.1417154E-2,-8.826749E-2,-1.795918E-2,1.4478264E-3],"split_indices":[1,1,1,9,9,9,9,0,0,0,0,0,0,0,0],"split_type":[0,0,0,0,0,0,0,0,0,0,0,0,0,0,0],"sum_hessian":[7.924994E4,3.0005848E4,4.9244094E4,2.8697715E4,1.3081345E3,2.257297E4,2.6671123E4,1.5646678E4,1.3051036E4,7.982185E2,5.099161E2,2.2202088E4,3.7088275E2,7.578899E3,1.9092223E4],"tree_param":{"num_deleted":"0","num_feature":"10","num_nodes":"15","size_leaf_vector":"0"}},{"base_weights":[-9.441484E-5,-2.8557586E-2,3.405159E-3,-1.09348826E-1,2.2141425E-2,7.0713115E-1,3.01764E-3,-4.1779593E-2,-5.054217E-1,1.7860302E-1,-7.153479E-2,-1.2429467E0,1.1205056E0,-1.7606793E-1,3.9927266E-3],"categories":[],"categories_nodes":[],"categories_segments":[],"categories_sizes":[],"default_left":[true,true,true,true,true,true,true,false,false,false,false,false,false,false,false],"id":54,"left_children":[1,3,5,7,9,11,13,-1,-1,-1,-1,-1,-1,-1,-1],"loss_changes":[7.8925896E0,3.5537388E1,1.9240181E1,8.9503815E1,7.815175E1,3.2693756E1,1.2315612E1,0E0,0E0,0E0,0E0,0E0,0E0,0E0,0E0],"parents":[2147483647,0,0,1,1,2,2,3,3,4,4,5,5,6,6],"right_children":[2,4,6,8,10,12,14,-1,-1,-1,-1,-1,-1,-1,-1],"split_conditions":[-7.4814206E-1,-1.621868E-1,-7.3901474E-1,-3.7502086E-1,2.7638057E-1,-2.589296E-1,-9.361292E-1,-1.2533878E-2,-1.5162651E-1,5.358091E-2,-2.1460438E-2,-3.7288404E-1,3.361517E-1,-5.282038E-2,1.197818E-3],"split_indices":[9,0,9,0,0,0,0,0,0,0,0,0,0,0,0],"split_type":[0,0,0,0,0,0,0,0,0,0,0,0,0,0,0],"sum_hessian":[7.923375E4,8.674452E3,7.05593E4,3.3441833E3,5.330269E3,3.7829613E1,7.052147E4,2.8577605E3,4.8642273E2,1.9958378E3,3.3344314E3,6.2655044E0,3.1564108E1,3.80924E2,7.014054E4],"tree_param":{"num_deleted":"0","num_feature":"10","num_nodes":"15","size_leaf_vector":"0"}},{"base_weights":[-8.428321E-5,9.037918E-3,-1.0880195E-2,-2.964078E-4,5.59743E-2,-2.41729E-1,-7.729199E-3,8.338738E-3,-8.893114E-2,-1.1081432E-2,9.995739E-2,5.6041195E-3,-6.259052E-1,-5.7464087E-1,-6.527417E-3],"categories":[],"categories_nodes":[],"categories_segments":[],"categories_sizes":[],"default_left":[true,true,true,true,true,true,true,false,false,false,false,false,false,false,false],"id":55,"left_children":[1,3,5,7,9,11,13,-1,-1,-1,-1,-1,-1,-1,-1],"loss_changes":[7.802344E0,1.8813528E1,2.6391392E1,2.7415863E1,2.100984E1,4.6426514E1,2.4384642E1,0E0,0E0,0E0,0E0,0E0,0E0,0E0,0E0],"parents":[2147483647,0,0,1,1,2,2,3,3,4,4,5,5,6,6],"right_children":[2,4,6,8,10,12,14,-1,-1,-1,-1,-1,-1,-1,-1],"split_conditions":[5E-1,1.1664143E0,-1.7140923E0,1.1076121E0,5E-1,-5.879378E-1,-1.0843892E0,2.5016216E-3,-2.6679344E-2,-3.3244297E-3,2.9987218E-2,1.681236E-3,-1.8777157E-1,-1.7239226E-1,-1.9582252E-3],"split_indices":[5,0,1,1,3,9,9,0,0,0,0,0,0,0,0],"split_type":[0,0,0,0,0,0,0,0,0,0,0,0,0,0,0],"sum_hessian":[7.92237E4,4.2940508E4,3.62832E4,3.5818258E4,7.12225E3,4.8756296E2,3.5795637E4,3.2639312E4,3.1789446E3,2.8214587E3,4.300791E3,2.9720648E2,1.9035648E2,7.4712364E1,3.572092E4],"tree_param":{"num_deleted":"0","num_feature":"10","num_nodes":"15","size_leaf_vector":"0"}},{"base_weights":[-5.921354E-5,-4.8261503E-4,2.3561235E-1,1.1613275E-4,-9.3748E-1,3.616778E-1,-6.9443554E-1,-2.136517E-4,6.7589664E-1,-1.2438639E0,2.4275254E-1,7.163364E-1,8.6132675E-2,-1.2876003E0,2.4038655E-1],"categories":[],"categories_nodes":[],"categories_segments":[],"categories_sizes":[],"default_left":[true,true,true,true,true,true,true,false,false,false,false,false,false,false,false],"id":56,"left_children":[1,3,5,7,9,11,13,-1,-1,-1,-1,-1,-1,-1,-1],"loss_changes":[7.8959537E0,4.4314728E1,1.688958E1,1.7592688E1,1.854206E1,1.2215176E1,9.892337E0,0E0,0E0,0E0,0E0,0E0,0E0,0E0,0E0],"parents":[2147483647,0,0,1,1,2,2,3,3,4,4,5,5,6,6],"right_children":[2,4,6,8,10,12,14,-1,-1,-1,-1,-1,-1,-1,-1],"split_conditions":[7.1372347E0,5.9652205E0,2.1402917E0,5.823099E0,1.6400092E0,7.7174015E0,6.654956E0,-6.409551E-5,2.02769E-1,-3.731592E-1,7.282577E-2,2.1490094E-1,2.5839804E-2,-3.862801E-1,7.2115965E-2],"split_indices":[9,9,0,9,1,9,0,0,0,0,0,0,0,0,0],"split_type":[0,0,0,0,0,0,0,0,0,0,0,0,0,0,0],"sum_hessian":[7.912856E4,7.898766E4,1.4090926E2,7.893821E4,4.944219E1,1.2462746E2,1.6281794E1,7.890071E4,3.7504276E1,3.9209606E1,1.023258E1,5.3791645E1,7.083581E1,9.73032E0,6.551473E0],"tree_param":{"num_deleted":"0","num_feature":"10","num_nodes":"15","size_leaf_vector":"0"}},{"base_weights":[-6.6788685E-5,1.7287436E-1,-6.334714E-4,-1.2898071E0,2.996732E-1,-2.6284704E-1,-9.754871E-5,1.7720166E0,1.3214941E-1,-4.664485E-1,9.080472E-1,-4.9848454E-3,1.9676158E-2],"categories":[],"categories_nodes":[],"categories_segments":[],"categories_sizes":[],"default_left":[true,true,true,false,true,true,true,false,false,false,false,false,false],"id":57,"left_children":[1,3,5,-1,7,9,11,-1,-1,-1,-1,-1,-1],"loss_changes":[7.7539773E0,4.8312626E1,1.1082076E1,0E0,5.8618576E1,3.8769783E1,7.6058197E0,0E0,0E0,0E0,0E0,0E0,0E0],"parents":[2147483647,0,0,1,1,2,2,4,4,5,5,6,6],"right_children":[2,4,6,-1,8,10,12,-1,-1,-1,-1,-1,-1],"split_conditions":[-1.1389015E0,-6.523503E-1,-1.0649204E0,-3.8694215E-1,-6.136532E-1,4.281801E-2,4.164515E-1,5.31605E-1,3.9644826E-2,-1.3993455E-1,2.7241418E-1,-1.4954536E-3,5.9028477E-3],"split_indices":[9,0,9,0,0,1,9,0,0,0,0,0,0],"split_type":[0,0,0,0,0,0,0,0,0,0,0,0,0],"sum_hessian":[7.9117875E4,2.574087E2,7.886047E4,1.9802769E1,2.3760591E2,1.5985112E2,7.870062E4,2.3294659E1,2.1431126E2,1.366852E2,2.3165932E1,6.3104395E4,1.5596222E4],"tree_param":{"num_deleted":"0","num_feature":"10","num_nodes":"13","size_leaf_vector":"0"}},{"base_weights":[-5.8356447E-5,-1.8555723E-4,7.404143E-1,-8.8069784E-5,-1.2625023E0,1.2839664E0,2.5743994E-1,-5.9974564E-6,-1.0002153E0],"categories":[],"categories_nodes":[],"categories_segments":[],"categories_sizes":[],"default_left":[true,true,true,true,false,false,false,false,false],"id":58,"left_children":[1,3,5,7,-1,-1,-1,-1,-1],"loss_changes":[7.452242E0,9.734711E0,3.236919E0,6.4928374E0,0E0,0E0,0E0,0E0,0E0],"parents":[2147483647,0,0,1,1,2,2,3,3],"right_children":[2,4,6,8,-1,-1,-1,-1,-1],"split_conditions":[2.5450842E0,2.385365E0,5E-1,1.1299639E1,-3.787507E-1,3.8518995E-1,7.723199E-2,-1.799237E-6,-3.000646E-1],"split_indices":[1,1,3,9,0,0,0,0,0],"split_type":[0,0,0,0,0,0,0,0,0],"sum_hessian":[7.9117875E4,7.910528E4,1.2589211E1,7.910018E4,5.108757E0,5.142853E0,7.4463587E0,7.909469E4,5.4906535E0],"tree_param":{"num_deleted":"0","num_feature":"10","num_nodes":"9","size_leaf_vector":"0"}},{"base_weights":[-4.673888E-5,8.8399306E-2,-9.6565153E-4,-7.443761E-2,2.9242536E-1,-2.838905E-2,3.106922E-3,-2.6838225E-1,3.271892E-1,3.4225544E-1,-1.8029653E0,-3.683001E-2,4.2890474E-1,3.67535E-2,-2.9130394E-3],"categories":[],"categories_nodes":[],"categories_segments":[],"categories_sizes":[],"default_left":[true,true,true,true,true,true,true,false,false,false,false,false,false,false,false],"id":59,"left_children":[1,3,5,7,9,11,13,-1,-1,-1,-1,-1,-1,-1,-1],"loss_changes":[6.4302063E0,2.7050007E1,8.74536E0,3.539198E1,3.834203E1,3.9098854E1,1.3809983E1,0E0,0E0,0E0,0E0,0E0,0E0,0E0,0E0],"parents":[2147483647,0,0,1,1,2,2,3,3,4,4,5,5,6,6],"right_children":[2,4,6,8,10,12,14,-1,-1,-1,-1,-1,-1,-1,-1],"split_conditions":[-1.9270511E0,-1.9802909E0,-1.1284556E0,-2.861732E-1,4.3611485E-1,6.308017E-1,-6.274898E-1,-8.051468E-2,9.8156765E-2,1.0267664E-1,-5.408896E-1,-1.1049004E-2,1.2867142E-1,1.1026051E-2,-8.7391183E-4],"split_indices":[1,1,1,9,9,9,9,0,0,0,0,0,0,0,0],"split_type":[0,0,0,0,0,0,0,0,0,0,0,0,0,0,0],"sum_hessian":[7.911539E4,8.125406E2,7.830285E4,4.522371E2,3.603035E2,1.01241455E4,6.817871E4,3.0519223E2,1.4704486E2,3.5275146E2,7.552051E0,9.941559E3,1.8258691E2,1.03463125E4,5.7832395E4],"tree_param":{"num_deleted":"0","num_feature":"10","num_nodes":"15","size_leaf_vector":"0"}},{"base_weights":[-4.3487944E-5,-5.1622554E-3,1.4577139E-2,-9.772646E-3,8.879004E-2,-1.0764553E-1,2.778258E-2,-4.3760994E-3,-2.4544609E-1,-3.8523756E-2,2.6173303E-1,1.4662917E0,-1.1892876E-1,7.840466E-2,-1.2788317E-2],"categories":[],"categories_nodes":[],"categories_segments":[],"categories_sizes":[],"default_left":[true,true,true,true,true,true,true,false,false,false,false,false,false,false,false],"id":60,"left_children":[1,3,5,7,9,11,13,-1,-1,-1,-1,-1,-1,-1,-1],"loss_changes":[5.919957E0,2.537928E1,3.3110264E1,7.102991E1,6.035472E1,3.569892E1,3.8023003E1,0E0,0E0,0E0,0E0,0E0,0E0,0E0,0E0],"parents":[2147483647,0,0,1,1,2,2,3,3,4,4,5,5,6,6],"right_children":[2,4,6,8,10,12,14,-1,-1,-1,-1,-1,-1,-1,-1],"split_conditions":[5E-1,1.4270706E0,-5.2758485E-1,9.792911E-1,1.2140915E0,-9.877254E-1,6.7378044E-2,-1.3128299E-3,-7.363383E-2,-1.1557127E-2,7.851991E-2,4.3988752E-1,-3.567863E-2,2.35214E-2,-3.8364953E-3],"split_indices":[8,9,9,9,1,0,9,0,0,0,0,0,0,0,0],"split_type":[0,0,0,0,0,0,0,0,0,0,0,0,0,0,0],"sum_hessian":[7.9099945E4,5.8588438E4,2.051151E4,5.5848746E4,2.7396921E3,1.9993566E3,1.8512152E4,5.459952E4,1.2492235E3,1.5784655E3,1.1612267E3,1.3313104E1,1.9860435E3,8.235468E3,1.0276685E4],"tree_param":{"num_deleted":"0","num_feature":"10","num_nodes":"15","size_leaf_vector":"0"}},{"base_weights":[-3.4786455E-5,2.6227108E-3,-4.8240103E-2,-2.9854433E-4,2.7182046E-1,-2.1507418E-1,-3.1305538E-3,2.3147233E-3,-9.5776804E-2,-9.55988E-1,3.1061658E-1,-1.8044307E0,-1.7465197E-1,-3.0431218E-2,2.6152757E-1],"categories":[],"categories_nodes":[],"categories_segments":[],"categories_sizes":[],"default_left":[true,true,true,true,true,true,true,false,false,false,false,false,false,false,false],"id":61,"left_children":[1,3,5,7,9,11,13,-1,-1,-1,-1,-1,-1,-1,-1],"loss_changes":[1.0132824E1,5.895204E1,3.1101332E1,1.850416E1,3.8631237E1,5.6193825E1,2.3520172E1,0E0,0E0,0E0,0E0,0E0,0E0,0E0,0E0],"parents":[2147483647,0,0,1,1,2,2,3,3,4,4,5,5,6,6],"right_children":[2,4,6,8,10,12,14,-1,-1,-1,-1,-1,-1,-1,-1],"split_conditions":[1.5886607E0,1.4348581E0,5E-1,1.5867696E0,-2.2338054E-1,1.658748E0,4.242835E0,6.9441705E-4,-2.8733043E-2,-2.8679642E-1,9.318498E-2,-5.4132926E-1,-5.2395593E-2,-9.129366E-3,7.845827E-2],"split_indices":[9,9,4,1,1,9,0,0,0,0,0,0,0,0,0],"split_type":[0,0,0,0,0,0,0,0,0,0,0,0,0,0,0],"sum_hessian":[7.909551E4,7.49638E4,4.1317124E3,7.416003E4,8.0376404E2,8.7858136E2,3.253131E3,7.218527E4,1.9747561E3,2.389517E1,7.798689E2,2.070845E1,8.5787286E2,2.9497375E3,3.0339355E2],"tree_param":{"num_deleted":"0","num_feature":"10","num_nodes":"15","size_leaf_vector":"0"}},{"base_weights":[-4.0614967E-5,-4.382608E-3,1.767437E-2,-3.9462564E-3,-1.7754915E0,2.5582594E-1,4.0315394E-3,1.7210457E-4,-1.0640647E-1,3.002573E-1,-1.7930093E-1,-1.6776407E0,5.142808E-3],"categories":[],"categories_nodes":[],"categories_segments":[],"categories_sizes":[],"default_left":[true,true,true,true,false,true,true,false,false,false,false,false,false],"id":62,"left_children":[1,3,5,7,-1,9,11,-1,-1,-1,-1,-1,-1],"loss_changes":[6.0807123E0,4.9061333E1,5.056112E1,2.6785456E1,0E0,1.6355175E1,2.7517029E1,0E0,0E0,0E0,0E0,0E0,0E0],"parents":[2147483647,0,0,1,1,2,2,3,3,5,5,6,6],"right_children":[2,4,6,8,-1,10,12,-1,-1,-1,-1,-1,-1],"split_conditions":[4.164515E-1,3.8354942E-1,4.3222114E-1,2.6492956E-1,-5.326475E-1,1.4802902E0,4.5480478E-1,5.1631374E-5,-3.192194E-2,9.007719E-2,-5.3790282E-2,-5.032922E-1,1.5428425E-3],"split_indices":[9,9,9,9,0,1,9,0,0,0,0,0,0],"split_type":[0,0,0,0,0,0,0,0,0,0,0,0,0],"sum_hessian":[7.905211E4,6.349103E4,1.5561079E4,6.3476395E4,1.4636588E1,8.421752E2,1.4718904E4,6.1024527E4,2.4518662E3,7.6442834E2,7.7746796E1,8.723716E0,1.4710181E4],"tree_param":{"num_deleted":"0","num_feature":"10","num_nodes":"13","size_leaf_vector":"0"}},{"base_weights":[-4.942923E-5,-2.5493788E-4,3.7011695E-1,-3.4103392E-5,-1.4205658E0,6.5031296E-1,-1.2717808E0,-3.079795E-4,5.7036996E-1,-1.1128312E0,9.693567E-1],"categories":[],"categories_nodes":[],"categories_segments":[],"categories_sizes":[],"default_left":[true,true,true,true,false,true,false,false,false,false,false],"id":63,"left_children":[1,3,5,7,-1,9,-1,-1,-1,-1,-1],"loss_changes":[6.0130653E0,2.4778553E1,2.1004633E1,1.2339779E1,0E0,2.2526075E1,0E0,0E0,0E0,0E0,0E0],"parents":[2147483647,0,0,1,1,2,2,3,3,5,5],"right_children":[2,4,6,8,-1,10,-1,-1,-1,-1,-1],"split_conditions":[9.15419E0,8.330666E0,1.1076121E0,7.678464E0,-4.2616978E-1,5E-1,-3.8153428E-1,-9.239386E-5,1.7111099E-1,-3.3384937E-1,2.9080704E-1],"split_indices":[9,9,1,9,0,3,0,0,0,0,0],"split_type":[0,0,0,0,0,0,0,0,0,0,0],"sum_hessian":[7.904174E4,7.899888E4,4.2859222E1,7.89876E4,1.1281221E1,3.7127243E1,5.7319775E0,7.8950695E4,3.6908245E1,5.3076034E0,3.1819641E1],"tree_param":{"num_deleted":"0","num_feature":"10","num_nodes":"11","size_leaf_vector":"0"}},{"base_weights":[-5.2383366E-5,2.001595E-3,-3.7546128E-2,8.0954534E-4,4.5907843E-1,1.8831336E-1,-6.766782E-2,1.3468796E-3,-3.766484E-1,1.1318616E0,1.2155654E-1,1.60289E0,1.2402566E-1,-6.757802E-1,-3.8234934E-2],"categories":[],"categories_nodes":[],"categories_segments":[],"categories_sizes":[],"default_left":[true,true,true,true,true,true,true,false,false,false,false,false,false,false,false],"id":64,"left_children":[1,3,5,7,9,11,13,-1,-1,-1,-1,-1,-1,-1,-1],"loss_changes":[6.086961E0,4.082845E1,2.7940617E1,1.5159526E1,4.4124348E1,4.375369E1,6.4815994E1,0E0,0E0,0E0,0E0,0E0,0E0,0E0,0E0],"parents":[2147483647,0,0,1,1,2,2,3,3,4,4,5,5,6,6],"right_children":[2,4,6,8,10,12,14,-1,-1,-1,-1,-1,-1,-1,-1],"split_conditions":[1.5886607E0,1.5828202E0,-7.426436E-1,5.6230326E0,5E-1,-8.090173E-1,-5.8785516E-1,4.040639E-4,-1.1299452E-1,3.3955848E-1,3.6466964E-2,4.8086703E-1,3.72077E-2,-2.0273407E-1,-1.1470481E-2],"split_indices":[9,9,0,0,4,1,0,0,0,0,0,0,0,0,0],"split_type":[0,0,0,0,0,0,0,0,0,0,0,0,0,0,0],"sum_hessian":[7.903783E4,7.493376E4,4.1040664E3,7.473984E4,1.9391862E2,4.8231363E2,3.6217527E3,7.463459E4,1.05250435E2,6.3997944E1,1.2992068E2,1.9926262E1,4.6238736E2,1.6618787E2,3.455565E3],"tree_param":{"num_deleted":"0","num_feature":"10","num_nodes":"15","size_leaf_vector":"0"}},{"base_weights":[-5.93629E-5,7.296575E-3,-8.755797E-3,1.0775292E-2,-1.1925665E-1,1.0241776E-1,-1.3383741E-2,-2.6237777E-2,2.1207469E-2,-4.5223552E-1,7.4848365E-3,2.0784715E-1,-1.6962592E-1,-2.2172228E-1,-8.229653E-3],"categories":[],"categories_nodes":[],"categories_segments":[],"categories_sizes":[],"default_left":[true,true,true,true,true,true,true,false,false,false,false,false,false,false,false],"id":65,"left_children":[1,3,5,7,9,11,13,-1,-1,-1,-1,-1,-1,-1,-1],"loss_changes":[5.056569E0,1.885388E1,1.8637905E1,1.6093721E1,4.8355415E1,4.155785E1,3.7339977E1,0E0,0E0,0E0,0E0,0E0,0E0,0E0,0E0],"parents":[2147483647,0,0,1,1,2,2,3,3,4,4,5,5,6,6],"right_children":[2,4,6,8,10,12,14,-1,-1,-1,-1,-1,-1,-1,-1],"split_conditions":[5E-1,1.512733E0,-8.2876533E-1,-5.040115E-1,1.8904253E0,4.0537095E-1,-7.3278475E-1,-7.8713335E-3,6.3622408E-3,-1.3567066E-1,2.245451E-3,6.2354147E-2,-5.088778E-2,-6.651668E-2,-2.468896E-3],"split_indices":[5,9,9,0,9,0,9,0,0,0,0,0,0,0,0],"split_type":[0,0,0,0,0,0,0,0,0,0,0,0,0,0,0],"sum_hessian":[7.904342E4,4.2822164E4,3.622126E4,4.167744E4,1.144722E3,1.4467185E3,3.4774543E4,9.163628E3,3.2513814E4,3.1488336E2,8.2983875E2,1.0428157E3,4.0390286E2,8.385042E2,3.393604E4],"tree_param":{"num_deleted":"0","num_feature":"10","num_nodes":"15","size_leaf_vector":"0"}},{"base_weights":[-4.3961383E-5,-1.3587032E-2,5.3527937E-3,-1.8718539E-2,1.8938865E-1,-1.1874695E0,5.6066215E-3,-1.6597714E-2,-9.2869544E-1,6.206317E-1,-2.3153703E-1,-3.9562127E-1,-1.709979E0,-2.5362992E-3,2.5790641E-2],"categories":[],"categories_nodes":[],"categories_segments":[],"categories_sizes":[],"default_left":[true,true,true,true,true,true,true,false,false,false,false,false,false,false,false],"id":66,"left_children":[1,3,5,7,9,11,13,-1,-1,-1,-1,-1,-1,-1,-1],"loss_changes":[5.7736826E0,2.344846E1,1.7109127E1,4.2355694E1,1.0091005E2,4.2976685E0,9.282189E0,0E0,0E0,0E0,0E0,0E0,0E0,0E0,0E0],"parents":[2147483647,0,0,1,1,2,2,3,3,4,4,5,5,6,6],"right_children":[2,4,6,8,10,12,14,-1,-1,-1,-1,-1,-1,-1,-1],"split_conditions":[-5.428188E-1,5.295645E-1,-1.2050949E0,4.1859305E-1,5E-1,-2.7662024E-1,4.6986616E-1,-4.9793143E-3,-2.7860865E-1,1.8618952E-1,-6.9461115E-2,-1.18686385E-1,-5.1299375E-1,-7.608898E-4,7.737193E-3],"split_indices":[1,9,9,9,3,1,0,0,0,0,0,0,0,0,0],"split_type":[0,0,0,0,0,0,0,0,0,0,0,0,0,0,0],"sum_hessian":[7.8993625E4,2.2508184E4,5.6485445E4,2.1954062E4,5.541214E2,1.1022222E1,5.647442E4,2.190403E4,5.0032074E1,2.734719E2,2.8064948E2,5.080312E0,5.9419103E0,4.024079E4,1.6233631E4],"tree_param":{"num_deleted":"0","num_feature":"10","num_nodes":"15","size_leaf_vector":"0"}},{"base_weights":[-4.0142473E-5,2.025417E-2,-3.9263885E-3,9.269119E-3,4.164316E-1,-3.2193342E-1,-1.1880124E-4,4.545368E-2,-8.043909E-2,-1.2808409E-2,8.33982E-1,-7.141024E-1,2.3168583E-1,3.4308175E-3,-6.33539E-2],"categories":[],"categories_nodes":[],"categories_segments":[],"categories_sizes":[],"default_left":[true,true,true,true,true,true,true,false,false,false,false,false,false,false,false],"id":67,"left_children":[1,3,5,7,9,11,13,-1,-1,-1,-1,-1,-1,-1,-1],"loss_changes":[6.2262797E0,5.521403E1,8.022659E1,4.008123E1,6.135898E1,1.7036575E2,1.4696567E1,0E0,0E0,0E0,0E0,0E0,0E0,0E0,0E0],"parents":[2147483647,0,0,1,1,2,2,3,3,4,4,5,5,6,6],"right_children":[2,4,6,8,10,12,14,-1,-1,-1,-1,-1,-1,-1,-1],"split_conditions":[-7.5554264E-1,1.6400092E0,-6.523503E-1,6.816945E-1,5E-1,-9.3433276E-2,1.4802902E0,1.3636104E-2,-2.4131728E-2,-3.8425226E-3,2.501946E-1,-2.1423073E-1,6.950575E-2,1.0292453E-3,-1.9006172E-2],"split_indices":[0,1,0,1,6,9,1,0,0,0,0,0,0,0,0],"split_type":[0,0,0,0,0,0,0,0,0,0,0,0,0,0,0],"sum_hessian":[7.8942875E4,1.2686849E4,6.625603E4,1.234556E4,3.4128937E2,7.829274E2,6.54731E4,8.797505E3,3.5480544E3,1.6876697E2,1.7252242E2,4.5811862E2,3.2480878E2,6.199409E4,3.4790105E3],"tree_param":{"num_deleted":"0","num_feature":"10","num_nodes":"15","size_leaf_vector":"0"}},{"base_weights":[-1.2415391E-4,-4.5787403E-3,1.5351376E-2,1.477505E-3,-8.526726E-2,7.10199E-2,-1.1557332E-2,4.060106E-3,-9.885536E-2,-2.6586947E-1,6.7501655E-3,-8.1579995E-1,8.011207E-2,-4.1098273E-1,-7.001725E-3],"categories":[],"categories_nodes":[],"categories_segments":[],"categories_sizes":[],"default_left":[true,true,true,true,true,true,true,false,false,false,false,false,false,false,false],"id":68,"left_children":[1,3,5,7,9,11,13,-1,-1,-1,-1,-1,-1,-1,-1],"loss_changes":[5.441238E0,2.9950043E1,2.6427649E1,1.4773002E1,7.1112564E1,4.6419487E1,2.1639511E1,0E0,0E0,0E0,0E0,0E0,0E0,0E0,0E0],"parents":[2147483647,0,0,1,1,2,2,3,3,4,4,5,5,6,6],"right_children":[2,4,6,8,10,12,14,-1,-1,-1,-1,-1,-1,-1,-1],"split_conditions":[8.414136E-1,6.816945E-1,-4.846628E-1,1.512733E0,-3.814705E-1,-6.5023756E-1,-3.814705E-1,1.2180319E-3,-2.965661E-2,-7.976084E-2,2.0250496E-3,-2.4474E-1,2.4033623E-2,-1.2329482E-1,-2.1005175E-3],"split_indices":[1,1,0,9,0,9,0,0,0,0,0,0,0,0,0],"split_type":[0,0,0,0,0,0,0,0,0,0,0,0,0,0,0],"sum_hessian":[7.8928484E4,6.12877E4,1.7640781E4,5.70097E4,4.278E3,5.7479106E3,1.1892872E4,5.558001E4,1.4296882E3,1.4433175E3,2.8346824E3,5.7432274E1,5.690478E3,1.3310732E2,1.1759765E4],"tree_param":{"num_deleted":"0","num_feature":"10","num_nodes":"15","size_leaf_vector":"0"}},{"base_weights":[-1.2449647E-4,-2.0123438E-3,3.4536146E-2,-1.6672013E-3,-9.432472E-1,4.3288536E-2,-5.605088E-1,-2.425071E-3,1.8918234E-1,-1.3543652E-4,-3.625061E0,2.8777277E-2,4.0572217E-1,-1.5277758E0,-2.555894E-1],"categories":[],"categories_nodes":[],"categories_segments":[],"categories_sizes":[],"default_left":[true,true,true,true,true,true,true,false,false,false,false,false,false,false,false],"id":69,"left_children":[1,3,5,7,9,11,13,-1,-1,-1,-1,-1,-1,-1,-1],"loss_changes":[5.1647906E0,2.4315567E1,2.1257847E1,1.0823477E1,6.939336E1,2.1125128E1,1.706132E1,0E0,0E0,0E0,0E0,0E0,0E0,0E0,0E0],"parents":[2147483647,0,0,1,1,2,2,3,3,4,4,5,5,6,6],"right_children":[2,4,6,8,10,12,14,-1,-1,-1,-1,-1,-1,-1,-1],"split_conditions":[2.30153E0,2.2628326E0,4.99568E0,5.124173E0,-2.8422633E-1,3.8277535E0,5E-1,-7.275214E-4,5.6754705E-2,-4.063096E-5,-1.0875183E0,8.633183E-3,1.21716656E-1,-4.5833275E-1,-7.667682E-2],"split_indices":[0,0,9,9,9,9,3,0,0,0,0,0,0,0,0],"split_type":[0,0,0,0,0,0,0,0,0,0,0,0,0,0,0],"sum_hessian":[7.892925E4,7.485319E4,4.076057E3,7.482675E4,2.6436531E1,4.017886E3,5.8170998E1,7.453177E4,2.9498077E2,2.0298292E1,6.1382375E0,3.864247E3,1.5363882E2,1.298128E1,4.518972E1],"tree_param":{"num_deleted":"0","num_feature":"10","num_nodes":"15","size_leaf_vector":"0"}},{"base_weights":[-9.190912E-5,5.377335E-4,-1.1241133E-1,-2.3958029E-4,4.423872E-1,-1.2899766E0,5.8148983E-3,5.7356065E-4,-3.8231027E-1,1.4350575E0,1.6228162E-1,-7.886102E-1,-2.132708E0,1.555803E0,-4.433282E-2],"categories":[],"categories_nodes":[],"categories_segments":[],"categories_sizes":[],"default_left":[true,true,true,true,true,true,true,false,false,false,false,false,false,false,false],"id":70,"left_children":[1,3,5,7,9,11,13,-1,-1,-1,-1,-1,-1,-1,-1],"loss_changes":[5.580416E0,2.6950268E1,6.1246475E1,2.4335842E1,3.8082916E1,1.5277145E1,3.1217588E1,0E0,0E0,0E0,0E0,0E0,0E0,0E0,0E0],"parents":[2147483647,0,0,1,1,2,2,3,3,4,4,5,5,6,6],"right_children":[2,4,6,8,10,12,14,-1,-1,-1,-1,-1,-1,-1,-1],"split_conditions":[4.623828E0,4.3259573E0,4.890549E0,3.8859653E0,-4.8957908E-1,1.0696715E0,-2.0335307E0,1.720682E-4,-1.1469308E-1,4.305173E-1,4.868449E-2,-2.3658307E-1,-6.3981247E-1,4.667409E-1,-1.3299847E-2],"split_indices":[9,9,9,9,1,0,1,0,0,0,0,0,0,0,0],"split_type":[0,0,0,0,0,0,0,0,0,0,0,0,0,0,0],"sum_hessian":[7.890553E4,7.846666E4,4.3887485E2,7.832986E4,1.3680058E2,3.913806E1,3.997368E2,7.81645E4,1.6535489E2,2.9198898E1,1.07601685E2,2.575275E1,1.338531E1,1.1586662E1,3.8815012E2],"tree_param":{"num_deleted":"0","num_feature":"10","num_nodes":"15","size_leaf_vector":"0"}},{"base_weights":[-7.336645E-5,-6.83319E-3,9.1618225E-3,-5.027011E-3,-3.769906E-1,6.117069E-2,-4.214708E-3,-5.997772E-3,1.0955093E0,-1.6477069E0,-2.1305366E-1,-2.6038888E0,6.5927364E-2,5.016872E-1,-5.307012E-3],"categories":[],"categories_nodes":[],"categories_segments":[],"categories_sizes":[],"default_left":[true,true,true,true,true,true,true,false,false,false,false,false,false,false,false],"id":71,"left_children":[1,3,5,7,9,11,13,-1,-1,-1,-1,-1,-1,-1,-1],"loss_changes":[4.9258657E0,3.0456697E1,2.3199467E1,4.8443325E1,4.5729942E1,8.665441E1,1.4660632E1,0E0,0E0,0E0,0E0,0E0,0E0,0E0,0E0],"parents":[2147483647,0,0,1,1,2,2,3,3,4,4,5,5,6,6],"right_children":[2,4,6,8,10,12,14,-1,-1,-1,-1,-1,-1,-1,-1],"split_conditions":[3.0901656E-1,3.5374756E0,5.219754E-1,3.3973012E0,3.9171152E0,-9.656302E-1,-9.877254E-1,-1.7993316E-3,3.286528E-1,-4.9431208E-1,-6.39161E-2,-7.811667E-1,1.977821E-2,1.5050617E-1,-1.5921036E-3],"split_indices":[1,9,1,9,9,9,0,0,0,0,0,0,0,0,0],"split_type":[0,0,0,0,0,0,0,0,0,0,0,0,0,0,0],"sum_hessian":[7.890244E4,4.5556785E4,3.3345656E4,4.533658E4,2.2020576E2,6.821116E3,2.6524541E4,4.5297617E4,3.896157E1,2.412854E1,1.9607722E2,1.117931E1,6.809937E3,5.615892E1,2.646838E4],"tree_param":{"num_deleted":"0","num_feature":"10","num_nodes":"15","size_leaf_vector":"0"}},{"base_weights":[-7.5014505E-5,-1.6890173E-1,4.705883E-4,-2.555694E-1,8.4893477E-1,1.9888143E-1,-2.8999956E-4,-5.747847E-1,9.744699E-2,2.5957556E0,-1.0715363E0,-5.847085E-1,4.391537E-1,-2.7359936E-1,3.5746215E-4],"categories":[],"categories_nodes":[],"categories_segments":[],"categories_sizes":[],"default_left":[true,true,true,true,true,true,true,false,false,false,false,false,false,false,false],"id":72,"left_children":[1,3,5,7,9,11,13,-1,-1,-1,-1,-1,-1,-1,-1],"loss_changes":[7.267647E0,2.2637463E1,1.1868407E1,2.653627E1,7.046231E1,5.6801544E1,1.386408E1,0E0,0E0,0E0,0E0,0E0,0E0,0E0,0E0],"parents":[2147483647,0,0,1,1,2,2,3,3,4,4,5,5,6,6],"right_children":[2,4,6,8,10,12,14,-1,-1,-1,-1,-1,-1,-1,-1],"split_conditions":[-9.619273E-1,1.320571E0,-9.232302E-1,-1.4794557E-1,-1.0006244E0,4.281801E-2,-8.974321E-1,-1.7243542E-1,2.9234098E-2,7.787267E-1,-3.214609E-1,-1.7541257E-1,1.3174611E-1,-8.207981E-2,1.0723865E-4],"split_indices":[0,1,0,9,0,1,0,0,0,0,0,0,0,0,0],"split_type":[0,0,0,0,0,0,0,0,0,0,0,0,0,0,0],"sum_hessian":[7.889796E4,2.5316174E2,7.86448E4,2.3398692E2,1.9174824E1,2.9933087E2,7.834547E4,1.2254623E2,1.114407E2,9.857249E0,9.317575E0,6.99083E1,2.2942256E2,1.841631E2,7.8161305E4],"tree_param":{"num_deleted":"0","num_feature":"10","num_nodes":"15","size_leaf_vector":"0"}},{"base_weights":[-1.1551589E-4,-1.12932704E-1,4.8872974E-4,7.94738E-1,-2.0228651E-1,4.3467823E-1,-2.0797673E-4,1.7788409E0,-2.8786495E-1,-1.1077158E0,-1.2525034E-1,-1.1971358E0,7.3184645E-1,-2.0175463E-1,2.5022082E-4],"categories":[],"categories_nodes":[],"categories_segments":[],"categories_sizes":[],"default_left":[true,true,true,true,true,true,true,false,false,false,false,false,false,false,false],"id":73,"left_children":[1,3,5,7,9,11,13,-1,-1,-1,-1,-1,-1,-1,-1],"loss_changes":[5.377445E0,3.424448E1,2.3735546E1,4.085391E1,2.6602474E1,6.1832222E1,7.234508E0,0E0,0E0,0E0,0E0,0E0,0E0,0E0,0E0],"parents":[2147483647,0,0,1,1,2,2,3,3,4,4,5,5,6,6],"right_children":[2,4,6,8,10,12,14,-1,-1,-1,-1,-1,-1,-1,-1],"split_conditions":[-9.361292E-1,-8.2740253E-1,-9.232302E-1,5E-1,-6.0217243E-1,-4.5944446E-1,-8.974321E-1,5.336523E-1,-8.6359486E-2,-3.3231476E-1,-3.7575103E-2,-3.5914075E-1,2.1955395E-1,-6.052639E-2,7.506625E-5],"split_indices":[0,9,0,2,9,9,0,0,0,0,0,0,0,0,0],"split_type":[0,0,0,0,0,0,0,0,0,0,0,0,0,0,0],"sum_hessian":[7.8881875E4,4.1924792E2,7.8462625E4,3.6865704E1,3.823822E2,1.247026E2,7.833792E4,1.8974487E1,1.7891218E1,2.8933926E1,3.534483E2,1.8744434E1,1.0595816E2,1.7669353E2,7.8161234E4],"tree_param":{"num_deleted":"0","num_feature":"10","num_nodes":"15","size_leaf_vector":"0"}},{"base_weights":[-1.3623202E-4,-2.3755492E-4,6.083146E-1,1.356351E-1,-6.7809725E-4,1.0024586E0,2.4201182E-1,-1.1684166E0,2.239668E-1,-1.2707414E-1,-2.9301857E-5],"categories":[],"categories_nodes":[],"categories_segments":[],"categories_sizes":[],"default_left":[true,true,true,true,true,false,false,false,false,false,false],"id":74,"left_children":[1,3,5,7,9,-1,-1,-1,-1,-1,-1],"loss_changes":[4.862432E0,4.720292E0,1.6533365E0,2.9618603E1,6.4458675E0,0E0,0E0,0E0,0E0,0E0,0E0],"parents":[2147483647,0,0,1,1,2,2,3,3,4,4],"right_children":[2,4,6,8,10,-1,-1,-1,-1,-1,-1],"split_conditions":[2.5450842E0,-1.1389015E0,6.620993E-2,-6.523503E-1,-1.0259831E0,3.007376E-1,7.2603546E-2,-3.50525E-1,6.719004E-2,-3.8122244E-2,-8.790557E-6],"split_indices":[1,9,9,0,9,0,0,0,0,0,0],"split_type":[0,0,0,0,0,0,0,0,0,0,0],"sum_hessian":[7.886822E4,7.8856086E4,1.2131981E1,2.5385843E2,7.860223E4,5.007349E0,7.1246324E0,1.5328871E1,2.3852956E2,4.004125E2,7.820181E4],"tree_param":{"num_deleted":"0","num_feature":"10","num_nodes":"11","size_leaf_vector":"0"}}]},"name":"gbtree"},"learner_model_param":{"base_score":"5E-1","num_class":"0","num_feature":"10"},"objective":{"name":"binary:logistic","reg_loss_param":{"scale_pos_weight":"20.1195374"}}},"version":[1,5,2]}